{"learner":{"attributes":{"scikit_learn":"{\"_estimator_type\": \"classifier\"}"},"feature_names":["age","gender","temperature","heart_rate","respiratory_rate","systolic_bp","diastolic_bp","pain_scale","immediate_triage","arrival_by_ems","asthma","cancer","ckd","copd","chf","cad","diabetes_type1","diabetes_type2","esrd","htn","obesity","osa","shock_index","mean_arterial_pressure","tachycardia_flag","hypotension_flag","fever_flag","high_pain_flag","chronic_burden_score"],"feature_types":["float","int","float","float","float","float","float","float","int","float","int","int","int","int","int","int","int","int","int","int","int","int","float","float","int","int","int","int","int"],"gradient_booster":{"model":{"cats":{"enc":[],"feature_segments":[],"sorted_idx":[]},"gbtree_model_param":{"num_parallel_tree":"1","num_trees":"2000"},"iteration_indptr":[0,4,8,12,16,20,24,28,32,36,40,44,48,52,56,60,64,68,72,76,80,84,88,92,96,100,104,108,112,116,120,124,128,132,136,140,144,148,152,156,160,164,168,172,176,180,184,188,192,196,200,204,208,212,216,220,224,228,232,236,240,244,248,252,256,260,264,268,272,276,280,284,288,292,296,300,304,308,312,316,320,324,328,332,336,340,344,348,352,356,360,364,368,372,376,380,384,388,392,396,400,404,408,412,416,420,424,428,432,436,440,444,448,452,456,460,464,468,472,476,480,484,488,492,496,500,504,508,512,516,520,524,528,532,536,540,544,548,552,556,560,564,568,572,576,580,584,588,592,596,600,604,608,612,616,620,624,628,632,636,640,644,648,652,656,660,664,668,672,676,680,684,688,692,696,700,704,708,712,716,720,724,728,732,736,740,744,748,752,756,760,764,768,772,776,780,784,788,792,796,800,804,808,812,816,820,824,828,832,836,840,844,848,852,856,860,864,868,872,876,880,884,888,892,896,900,904,908,912,916,920,924,928,932,936,940,944,948,952,956,960,964,968,972,976,980,984,988,992,996,1000,1004,1008,1012,1016,1020,1024,1028,1032,1036,1040,1044,1048,1052,1056,1060,1064,1068,1072,1076,1080,1084,1088,1092,1096,1100,1104,1108,1112,1116,1120,1124,1128,1132,1136,1140,1144,1148,1152,1156,1160,1164,1168,1172,1176,1180,1184,1188,1192,1196,1200,1204,1208,1212,1216,1220,1224,1228,1232,1236,1240,1244,1248,1252,1256,1260,1264,1268,1272,1276,1280,1284,1288,1292,1296,1300,1304,1308,1312,1316,1320,1324,1328,1332,1336,1340,1344,1348,1352,1356,1360,1364,1368,1372,1376,1380,1384,1388,1392,1396,1400,1404,1408,1412,1416,1420,1424,1428,1432,1436,1440,1444,1448,1452,1456,1460,1464,1468,1472,1476,1480,1484,1488,1492,1496,1500,1504,1508,1512,1516,1520,1524,1528,1532,1536,1540,1544,1548,1552,1556,1560,1564,1568,1572,1576,1580,1584,1588,1592,1596,1600,1604,1608,1612,1616,1620,1624,1628,1632,1636,1640,1644,1648,1652,1656,1660,1664,1668,1672,1676,1680,1684,1688,1692,1696,1700,1704,1708,1712,1716,1720,1724,1728,1732,1736,1740,1744,1748,1752,1756,1760,1764,1768,1772,1776,1780,1784,1788,1792,1796,1800,1804,1808,1812,1816,1820,1824,1828,1832,1836,1840,1844,1848,1852,1856,1860,1864,1868,1872,1876,1880,1884,1888,1892,1896,1900,1904,1908,1912,1916,1920,1924,1928,1932,1936,1940,1944,1948,1952,1956,1960,1964,1968,1972,1976,1980,1984,1988,1992,1996,2000],"tree_info":[0,1,2,3,0,1,2,3,0,1,2,3,0,1,2,3,0,1,2,3,0,1,2,3,0,1,2,3,0,1,2,3,0,1,2,3,0,1,2,3,0,1,2,3,0,1,2,3,0,1,2,3,0,1,2,3,0,1,2,3,0,1,2,3,0,1,2,3,0,1,2,3,0,1,2,3,0,1,2,3,0,1,2,3,0,1,2,3,0,1,2,3,0,1,2,3,0,1,2,3,0,1,2,3,0,1,2,3,0,1,2,3,0,1,2,3,0,1,2,3,0,1,2,3,0,1,2,3,0,1,2,3,0,1,2,3,0,1,2,3,0,1,2,3,0,1,2,3,0,1,2,3,0,1,2,3,0,1,2,3,0,1,2,3,0,1,2,3,0,1,2,3,0,1,2,3,0,1,2,3,0,1,2,3,0,1,2,3,0,1,2,3,0,1,2,3,0,1,2,3,0,1,2,3,0,1,2,3,0,1,2,3,0,1,2,3,0,1,2,3,0,1,2,3,0,1,2,3,0,1,2,3,0,1,2,3,0,1,2,3,0,1,2,3,0,1,2,3,0,1,2,3,0,1,2,3,0,1,2,3,0,1,2,3,0,1,2,3,0,1,2,3,0,1,2,3,0,1,2,3,0,1,2,3,0,1,2,3,0,1,2,3,0,1,2,3,0,1,2,3,0,1,2,3,0,1,2,3,0,1,2,3,0,1,2,3,0,1,2,3,0,1,2,3,0,1,2,3,0,1,2,3,0,1,2,3,0,1,2,3,0,1,2,3,0,1,2,3,0,1,2,3,0,1,2,3,0,1,2,3,0,1,2,3,0,1,2,3,0,1,2,3,0,1,2,3,0,1,2,3,0,1,2,3,0,1,2,3,0,1,2,3,0,1,2,3,0,1,2,3,0,1,2,3,0,1,2,3,0,1,2,3,0,1,2,3,0,1,2,3,0,1,2,3,0,1,2,3,0,1,2,3,0,1,2,3,0,1,2,3,0,1,2,3,0,1,2,3,0,1,2,3,0,1,2,3,0,1,2,3,0,1,2,3,0,1,2,3,0,1,2,3,0,1,2,3,0,1,2,3,0,1,2,3,0,1,2,3,0,1,2,3,0,1,2,3,0,1,2,3,0,1,2,3,0,1,2,3,0,1,2,3,0,1,2,3,0,1,2,3,0,1,2,3,0,1,2,3,0,1,2,3,0,1,2,3,0,1,2,3,0,1,2,3,0,1,2,3,0,1,2,3,0,1,2,3,0,1,2,3,0,1,2,3,0,1,2,3,0,1,2,3,0,1,2,3,0,1,2,3,0,1,2,3,0,1,2,3,0,1,2,3,0,1,2,3,0,1,2,3,0,1,2,3,0,1,2,3,0,1,2,3,0,1,2,3,0,1,2,3,0,1,2,3,0,1,2,3,0,1,2,3,0,1,2,3,0,1,2,3,0,1,2,3,0,1,2,3,0,1,2,3,0,1,2,3,0,1,2,3,0,1,2,3,0,1,2,3,0,1,2,3,0,1,2,3,0,1,2,3,0,1,2,3,0,1,2,3,0,1,2,3,0,1,2,3,0,1,2,3,0,1,2,3,0,1,2,3,0,1,2,3,0,1,2,3,0,1,2,3,0,1,2,3,0,1,2,3,0,1,2,3,0,1,2,3,0,1,2,3,0,1,2,3,0,1,2,3,0,1,2,3,0,1,2,3,0,1,2,3,0,1,2,3,0,1,2,3,0,1,2,3,0,1,2,3,0,1,2,3,0,1,2,3,0,1,2,3,0,1,2,3,0,1,2,3,0,1,2,3,0,1,2,3,0,1,2,3,0,1,2,3,0,1,2,3,0,1,2,3,0,1,2,3,0,1,2,3,0,1,2,3,0,1,2,3,0,1,2,3,0,1,2,3,0,1,2,3,0,1,2,3,0,1,2,3,0,1,2,3,0,1,2,3,0,1,2,3,0,1,2,3,0,1,2,3,0,1,2,3,0,1,2,3,0,1,2,3,0,1,2,3,0,1,2,3,0,1,2,3,0,1,2,3,0,1,2,3,0,1,2,3,0,1,2,3,0,1,2,3,0,1,2,3,0,1,2,3,0,1,2,3,0,1,2,3,0,1,2,3,0,1,2,3,0,1,2,3,0,1,2,3,0,1,2,3,0,1,2,3,0,1,2,3,0,1,2,3,0,1,2,3,0,1,2,3,0,1,2,3,0,1,2,3,0,1,2,3,0,1,2,3,0,1,2,3,0,1,2,3,0,1,2,3,0,1,2,3,0,1,2,3,0,1,2,3,0,1,2,3,0,1,2,3,0,1,2,3,0,1,2,3,0,1,2,3,0,1,2,3,0,1,2,3,0,1,2,3,0,1,2,3,0,1,2,3,0,1,2,3,0,1,2,3,0,1,2,3,0,1,2,3,0,1,2,3,0,1,2,3,0,1,2,3,0,1,2,3,0,1,2,3,0,1,2,3,0,1,2,3,0,1,2,3,0,1,2,3,0,1,2,3,0,1,2,3,0,1,2,3,0,1,2,3,0,1,2,3,0,1,2,3,0,1,2,3,0,1,2,3,0,1,2,3,0,1,2,3,0,1,2,3,0,1,2,3,0,1,2,3,0,1,2,3,0,1,2,3,0,1,2,3,0,1,2,3,0,1,2,3,0,1,2,3,0,1,2,3,0,1,2,3,0,1,2,3,0,1,2,3,0,1,2,3,0,1,2,3,0,1,2,3,0,1,2,3,0,1,2,3,0,1,2,3,0,1,2,3,0,1,2,3,0,1,2,3,0,1,2,3,0,1,2,3,0,1,2,3,0,1,2,3,0,1,2,3,0,1,2,3,0,1,2,3,0,1,2,3,0,1,2,3,0,1,2,3,0,1,2,3,0,1,2,3,0,1,2,3,0,1,2,3,0,1,2,3,0,1,2,3,0,1,2,3,0,1,2,3,0,1,2,3,0,1,2,3,0,1,2,3,0,1,2,3,0,1,2,3,0,1,2,3,0,1,2,3,0,1,2,3,0,1,2,3,0,1,2,3,0,1,2,3,0,1,2,3,0,1,2,3,0,1,2,3,0,1,2,3,0,1,2,3,0,1,2,3,0,1,2,3,0,1,2,3,0,1,2,3,0,1,2,3,0,1,2,3,0,1,2,3,0,1,2,3,0,1,2,3,0,1,2,3,0,1,2,3,0,1,2,3,0,1,2,3,0,1,2,3,0,1,2,3,0,1,2,3,0,1,2,3,0,1,2,3,0,1,2,3,0,1,2,3,0,1,2,3,0,1,2,3,0,1,2,3,0,1,2,3,0,1,2,3,0,1,2,3,0,1,2,3,0,1,2,3,0,1,2,3,0,1,2,3,0,1,2,3,0,1,2,3,0,1,2,3,0,1,2,3,0,1,2,3,0,1,2,3,0,1,2,3,0,1,2,3,0,1,2,3,0,1,2,3,0,1,2,3,0,1,2,3,0,1,2,3,0,1,2,3,0,1,2,3,0,1,2,3,0,1,2,3,0,1,2,3,0,1,2,3,0,1,2,3,0,1,2,3,0,1,2,3,0,1,2,3,0,1,2,3,0,1,2,3,0,1,2,3,0,1,2,3,0,1,2,3,0,1,2,3,0,1,2,3,0,1,2,3,0,1,2,3,0,1,2,3,0,1,2,3,0,1,2,3,0,1,2,3,0,1,2,3,0,1,2,3,0,1,2,3,0,1,2,3,0,1,2,3,0,1,2,3,0,1,2,3,0,1,2,3,0,1,2,3,0,1,2,3,0,1,2,3,0,1,2,3,0,1,2,3,0,1,2,3,0,1,2,3,0,1,2,3,0,1,2,3,0,1,2,3,0,1,2,3,0,1,2,3,0,1,2,3,0,1,2,3,0,1,2,3,0,1,2,3,0,1,2,3,0,1,2,3,0,1,2,3,0,1,2,3,0,1,2,3,0,1,2,3,0,1,2,3,0,1,2,3,0,1,2,3,0,1,2,3,0,1,2,3,0,1,2,3,0,1,2,3,0,1,2,3,0,1,2,3,0,1,2,3,0,1,2,3,0,1,2,3,0,1,2,3,0,1,2,3,0,1,2,3,0,1,2,3,0,1,2,3,0,1,2,3,0,1,2,3,0,1,2,3,0,1,2,3,0,1,2,3,0,1,2,3,0,1,2,3,0,1,2,3,0,1,2,3,0,1,2,3,0,1,2,3,0,1,2,3,0,1,2,3,0,1,2,3,0,1,2,3,0,1,2,3,0,1,2,3,0,1,2,3,0,1,2,3,0,1,2,3,0,1,2,3,0,1,2,3,0,1,2,3,0,1,2,3,0,1,2,3,0,1,2,3,0,1,2,3,0,1,2,3,0,1,2,3,0,1,2,3,0,1,2,3,0,1,2,3,0,1,2,3,0,1,2,3,0,1,2,3,0,1,2,3,0,1,2,3,0,1,2,3,0,1,2,3,0,1,2,3,0,1,2,3,0,1,2,3,0,1,2,3,0,1,2,3],"trees":[{"base_weights":[4.6371906E-3,7.1991676E-1,-5.268292E-1,8.935089E-1,-3.1724747E-2,-5.416225E-2,-3.2098666E-2,1.0774467E0,-1.4336824E-1,1.3115178E0,-2.9414994E-1,1.4052639E0,5.478959E-1,1.3227212E0,-2.4372348E-1,1.559039E0,-2.3515526E-2,9.910936E-2,-4.9008396E-1,1.5134264E0,3.5738018E-1,7.526752E-1,1.151931E-1,7.845031E-2,1.4042991E-2,-3.9220583E-1,7.257483E-1,8.4410004E-2,1.4703551E-2,4.6801165E-1,-1.3548002E-2,1.4916492E-2,-5.225175E-1,1.6322728E0,8.1998247E-1,7.957148E-2,7.8327805E-2,8.630425E-1,-7.5535704E-3,3.5778013E-1,-0E0,5.2197576E-2,-4.8092842E-1,5.423828E-2,-6.9865095E-3,7.82119E-1,-1.6957758E-2,-5.393154E-1,1.6070344E-2,8.495867E-2,5.123068E-2,4.895932E-2,2.1657644E-2,-1.2300838E-2,3.360522E-2,1.5665358E-2,4.9099103E-2,-8.728656E-3,3.3102132E-2,3.0928869E-2,-0E0,-2.8837696E-3,1.8784935E-2,-2.7294157E-2,-9.364552E-3,2.2170495E-2,6.805284E-2,-2.785523E-2,3.2674149E-3],"categories":[],"categories_nodes":[],"categories_segments":[],"categories_sizes":[],"default_left":[0,0,0,0,0,0,0,0,0,0,0,0,0,0,0,0,0,0,0,0,0,0,0,0,0,0,0,0,0,0,0,0,0,0,0,0,0,0,0,0,0,0,0,0,0,0,0,0,0,0,0,0,0,0,0,0,0,0,0,0,0,0,0,0,0,0,0,0,0],"id":0,"left_children":[1,3,5,7,-1,9,-1,11,13,15,17,19,21,23,25,27,-1,29,31,33,35,37,39,-1,-1,41,43,-1,-1,45,-1,-1,47,49,51,-1,53,55,57,59,61,-1,63,-1,-1,65,-1,67,-1,-1,-1,-1,-1,-1,-1,-1,-1,-1,-1,-1,-1,-1,-1,-1,-1,-1,-1,-1,-1],"loss_changes":[1.6697731E3,4.4156567E2,1.3670471E2,3.1758508E2,0E0,1.6301085E2,0E0,2.4251086E2,3.7127846E1,3.4768295E1,3.298566E1,9.658276E1,4.7555435E1,2.3282242E0,3.4593285E1,8.786926E0,0E0,1.9725914E1,7.6957855E0,6.099695E1,2.7995358E1,3.1300476E1,4.8169975E0,0E0,0E0,2.7190018E1,1.0656862E1,0E0,0E0,1.9127884E1,0E0,0E0,4.346733E0,2.2378906E1,5.82666E0,0E0,1.4276159E1,1.9775497E1,5.359394E0,5.1548543E0,2.857004E0,0E0,3.1926308E0,0E0,0E0,8.327797E0,0E0,3.2277985E0,0E0,0E0,0E0,0E0,0E0,0E0,0E0,0E0,0E0,0E0,0E0,0E0,0E0,0E0,0E0,0E0,0E0,0E0,0E0,0E0,0E0],"parents":[2147483647,0,0,1,1,2,2,3,3,5,5,7,7,8,8,9,9,10,10,11,11,12,12,13,13,14,14,15,15,17,17,18,18,19,19,20,20,21,21,22,22,25,25,26,26,29,29,32,32,33,33,34,34,36,36,37,37,38,38,39,39,40,40,42,42,45,45,47,47],"right_children":[2,4,6,8,-1,10,-1,12,14,16,18,20,22,24,26,28,-1,30,32,34,36,38,40,-1,-1,42,44,-1,-1,46,-1,-1,48,50,52,-1,54,56,58,60,62,-1,64,-1,-1,66,-1,68,-1,-1,-1,-1,-1,-1,-1,-1,-1,-1,-1,-1,-1,-1,-1,-1,-1,-1,-1,-1,-1],"split_conditions":[8.381558E-1,1E0,1.0080142E0,9.911805E1,-3.1724747E-2,2.5E1,-3.2098666E-2,6E1,2.5E1,1E0,9.841005E1,2.0082956E1,1E0,1.06333336E2,1.04333336E2,9.928129E-1,-2.3515526E-2,5.8E1,4E0,1E0,2.2E1,2.0082956E1,1E0,7.845031E-2,1.4042991E-2,4E0,2.0082956E1,8.4410004E-2,1.4703551E-2,2.0082956E1,-1.3548002E-2,1.4916492E-2,1E1,7.860164E-1,1E0,7.957148E-2,1.0093015E2,8.5333336E1,1.10333336E2,7.6E1,7E0,5.2197576E-2,1.32E2,5.423828E-2,-6.9865095E-3,9.1333336E1,-1.6957758E-2,1.0188852E2,1.6070344E-2,8.495867E-2,5.123068E-2,4.895932E-2,2.1657644E-2,-1.2300838E-2,3.360522E-2,1.5665358E-2,4.9099103E-2,-8.728656E-3,3.3102132E-2,3.0928869E-2,-0E0,-2.8837696E-3,1.8784935E-2,-2.7294157E-2,-9.364552E-3,2.2170495E-2,6.805284E-2,-2.785523E-2,3.2674149E-3],"split_indices":[22,8,22,2,0,0,0,0,0,8,2,4,9,23,23,22,0,0,7,9,0,4,19,0,0,7,4,0,0,4,0,0,7,22,19,0,23,23,23,0,7,0,5,0,0,23,0,23,0,0,0,0,0,0,0,0,0,0,0,0,0,0,0,0,0,0,0,0,0],"split_type":[0,0,0,0,0,0,0,0,0,0,0,0,0,0,0,0,0,0,0,0,0,0,0,0,0,0,0,0,0,0,0,0,0,0,0,0,0,0,0,0,0,0,0,0,0,0,0,0,0,0,0,0,0,0,0,0,0,0,0,0,0,0,0,0,0,0,0,0,0],"sum_hessian":[4.3881904E3,1.870709E3,2.5174814E3,1.6591136E3,2.1159543E2,4.9456668E2,2.0229148E3,1.4094813E3,2.4963223E2,7.227326E1,4.2229343E2,8.679359E2,5.415454E2,1.411296E1,2.3551927E2,6.3924E1,8.349265E0,1.3991212E2,2.823813E2,7.854918E2,8.244411E1,3.6579584E2,1.757496E2,1.0208048E1,3.9049113E0,2.0571848E2,2.9800798E1,5.7035862E1,6.888138E0,7.0478096E1,6.943404E1,9.900533E0,2.7248074E2,6.6763916E2,1.1785264E2,1.3139548E1,6.930456E1,3.1976126E2,4.6034584E1,5.405677E1,1.2169283E2,1.0388632E1,1.9532985E2,2.111349E1,8.68731E0,5.122536E1,1.9252731E1,2.684517E2,4.0290556E0,5.9744745E2,7.0191696E1,8.040564E1,3.744699E1,4.50343E1,2.4270258E1,5.8917675E1,2.6084357E2,3.8625412E1,7.40917E0,3.0224958E1,2.3831812E1,1.05997E2,1.56958275E1,1.5714696E2,3.818289E1,3.509083E1,1.6134527E1,2.6173566E2,6.7160316E0],"tree_param":{"num_deleted":"0","num_feature":"29","num_nodes":"69","size_leaf_vector":"1"}},{"base_weights":[1.31747285E-2,3.7961268E-1,-5.94227E-1,-2.675514E-1,1.1210604E0,-3.0204922E-1,-3.1185392E-2,-4.927849E-1,1.2720739E0,1.2297884E0,-3.0961452E-2,-3.1481635E-2,8.308416E-2,-5.248263E-1,1.3190358E0,1.5376637E0,-2.8514564E-2,1.3768733E0,1.4149658E-1,-5.4325044E-1,7.615127E-1,-1.834118E-2,9.047796E-2,-2.5731543E-2,1.7097918E0,9.1791403E-1,1.779298E0,7.523478E-1,-3.2498297E-1,-5.8848983E-1,-1.9402754E-1,-2.1096831E-2,7.3689915E-2,1.7747148E0,-1.7402615E-2,1.9314565E-1,1.690945E0,1.9457043E0,8.7709403E-1,1.1355715E0,-7.60388E-3,1.6426297E-1,-2.305985E-2,-3.0687375E-2,-1.7843407E-2,-2.4890881E-2,9.727788E-3,-0E0,9.2113614E-2,-2.9636556E-2,2.6039207E-2,-2.502333E-2,8.992501E-2,1.0070222E-1,4.832905E-2,5.148815E-2,-9.055363E-3,-3.8852156E-3,7.14669E-2,-1.2037098E-2,5.8078732E-2],"categories":[],"categories_nodes":[],"categories_segments":[],"categories_sizes":[],"default_left":[0,0,0,0,0,0,0,0,0,0,0,0,0,0,0,0,0,0,0,0,0,0,0,0,0,0,0,0,0,0,0,0,0,0,0,0,0,0,0,0,0,0,0,0,0,0,0,0,0,0,0,0,0,0,0,0,0,0,0,0,0],"id":1,"left_children":[1,3,5,7,9,11,-1,13,15,17,-1,-1,-1,19,21,23,-1,25,27,29,31,-1,-1,-1,33,35,37,39,41,43,45,-1,-1,47,-1,49,51,53,55,57,-1,59,-1,-1,-1,-1,-1,-1,-1,-1,-1,-1,-1,-1,-1,-1,-1,-1,-1,-1,-1],"loss_changes":[9.694892E2,1.3050131E3,1.3275391E1,5.04482E2,2.4161804E2,1.01686195E2,0E0,7.463797E1,9.306296E1,1.8992615E2,0E0,0E0,0E0,3.0303192E1,2.0526566E1,5.9941803E1,0E0,1.8948816E2,4.1950542E1,1.8848236E1,1.7007488E1,0E0,0E0,0E0,2.2133698E1,2.7612393E2,7.883545E1,2.2931206E1,5.831897E0,5.445648E0,1.752995E1,0E0,0E0,1.6761658E1,0E0,6.712097E1,5.8843872E1,2.5955444E1,1.5480087E1,1.7078873E1,0E0,8.594442E0,0E0,0E0,0E0,0E0,0E0,0E0,0E0,0E0,0E0,0E0,0E0,0E0,0E0,0E0,0E0,0E0,0E0,0E0,0E0],"parents":[2147483647,0,0,1,1,2,2,3,3,4,4,5,5,7,7,8,8,9,9,13,13,14,14,15,15,17,17,18,18,19,19,20,20,24,24,25,25,26,26,27,27,28,28,29,29,30,30,33,33,35,35,36,36,37,37,38,38,39,39,41,41],"right_children":[2,4,6,8,10,12,-1,14,16,18,-1,-1,-1,20,22,24,-1,26,28,30,32,-1,-1,-1,34,36,38,40,42,44,46,-1,-1,48,-1,50,52,54,56,58,-1,60,-1,-1,-1,-1,-1,-1,-1,-1,-1,-1,-1,-1,-1,-1,-1,-1,-1,-1,-1],"split_conditions":[8E0,7.944371E-1,1E0,9.911805E1,1E0,1.0080142E0,-3.1185392E-2,1E0,1.46E2,4E0,-3.0961452E-2,-3.1481635E-2,8.308416E-2,1E0,4E0,4E0,-2.8514564E-2,1.0080142E0,1.07E2,6E0,4E0,-1.834118E-2,9.047796E-2,-2.5731543E-2,1.0156331E2,9.881899E1,1E0,1E0,6E0,9.871378E1,6.5217394E-1,-2.1096831E-2,7.3689915E-2,5.6060606E-1,-1.7402615E-2,9.8E1,4E0,3E0,1E0,7.1E1,-7.60388E-3,9.930099E1,-2.305985E-2,-3.0687375E-2,-1.7843407E-2,-2.4890881E-2,9.727788E-3,-0E0,9.2113614E-2,-2.9636556E-2,2.6039207E-2,-2.502333E-2,8.992501E-2,1.0070222E-1,4.832905E-2,5.148815E-2,-9.055363E-3,-3.8852156E-3,7.14669E-2,-1.2037098E-2,5.8078732E-2],"split_indices":[7,22,28,2,8,22,0,16,5,28,0,0,0,18,7,7,0,22,3,7,7,0,0,0,2,2,9,9,7,2,22,0,0,22,0,2,7,28,17,23,0,2,0,0,0,0,0,0,0,0,0,0,0,0,0,0,0,0,0,0,0],"split_type":[0,0,0,0,0,0,0,0,0,0,0,0,0,0,0,0,0,0,0,0,0,0,0,0,0,0,0,0,0,0,0,0,0,0,0,0,0,0,0,0,0,0,0,0,0,0,0,0,0,0,0,0,0,0,0,0,0,0,0,0,0],"sum_hessian":[4.3522407E3,2.715554E3,1.636687E3,1.4502894E3,1.2652646E3,1.5362231E2,1.4830647E3,1.2666713E3,1.8361813E2,1.1916857E3,7.357898E1,1.3304202E2,2.0580288E1,1.246327E3,2.0344212E1,1.6100963E2,2.2608503E1,1.0489307E3,1.427549E2,1.2302504E3,1.6076738E1,4.469209E0,1.5875003E1,1.1926369E1,1.4908327E2,4.936896E2,5.552411E2,6.1745663E1,8.100924E1,1.0866769E3,1.4357341E2,6.0830903E0,9.993648E0,1.4502597E2,4.05729E0,2.5642264E2,2.3726695E2,4.663568E2,8.888429E1,4.3398514E1,1.8347149E1,1.6753265E1,6.4255974E1,9.7490784E2,1.1176904E2,8.098486E1,6.258855E1,5.6467156E0,1.3937926E2,7.452412E1,1.8189853E2,1.0541035E1,2.2672592E2,4.3347675E2,3.2880066E1,7.8137474E1,1.0746817E1,8.414597E0,3.4983917E1,1.2637207E1,4.1160574E0],"tree_param":{"num_deleted":"0","num_feature":"29","num_nodes":"61","size_leaf_vector":"1"}},{"base_weights":[-9.385247E-3,1.5910865E-1,-6.103939E-1,-1.9451949E-1,5.240881E-1,-6.3065E-1,7.123494E-1,-2.9536378E-1,8.48988E-2,1.1268197E-1,7.472734E-1,-1.7753498E-1,-3.20478E-2,-2.148595E-2,8.432341E-2,-2.062841E-1,-4.660959E-1,-1.5027384E-1,5.723136E-1,-0E0,4.6350396E-1,-4.687524E-1,8.6144596E-1,-2.3915349E-2,4.0059004E-2,-2.5751823E-1,1.938365E-2,-5.116466E-1,-8.639334E-2,-2.5041005E-1,4.7484788E-1,-1.095481E-1,7.8397167E-1,-5.504266E-2,8.0497223E-1,1.7720428E-1,1.0126557E0,7.212947E-2,-3.1155158E-2,6.263681E-1,1.192353E0,-3.3144516E-1,-3.0401299E-2,1.5203573E-1,-1.5496549E-2,3.968758E-3,-2.6124084E-2,-2.507849E-1,5.6400204E-1,-3.1987667E-1,1.026144E-1,1.567589E-1,6.445021E-2,6.624471E-1,-4.0798986E-1,3.2913187E-1,1.2385607E0,1.7210998E-1,-1.592502E-1,1.0611395E0,-0E0,-2.8806439E-2,3.8926076E-2,-1.8242138E-2,1.1750396E0,5.1479095E-1,1.339127E0,2.0249338E-1,1.5210375E0,1.5028871E-3,-1.8255396E-2,6.4763324E-3,-1.0152792E-2,-1.3338998E-2,1.388125E-2,-1.817417E-2,1.1245034E-2,4.611252E-2,-3.1076706E-4,-1.8965155E-2,3.1981461E-3,-1.4001272E-2,2.3979072E-2,2.9058842E-2,-7.7061057E-3,-1.7683161E-2,7.45168E-2,4.322462E-3,-2.8239632E-2,3.60078E-3,5.6858726E-2,1.2744406E-2,7.602107E-2,-1.6931221E-3,4.063906E-2,-1.0762787E-2,1.8126912E-2,1.7494274E-2,6.622627E-2,8.003519E-3,-1.6100055E-2,6.863468E-2,-8.381351E-3,6.1634947E-2,1.9500881E-2,1.6154168E-2,8.253364E-2,7.3743634E-2,-1.4158516E-2,8.048943E-2,-1.5998973E-2],"categories":[],"categories_nodes":[],"categories_segments":[],"categories_sizes":[],"default_left":[0,0,0,0,0,0,0,0,0,0,0,0,0,0,0,0,0,0,0,0,0,0,0,0,0,0,0,0,0,0,0,0,0,0,0,0,0,0,0,0,0,0,0,0,0,0,0,0,0,0,0,0,0,0,0,0,0,0,0,0,0,0,0,0,0,0,0,0,0,0,0,0,0,0,0,0,0,0,0,0,0,0,0,0,0,0,0,0,0,0,0,0,0,0,0,0,0,0,0,0,0,0,0,0,0,0,0,0,0,0,0],"id":2,"left_children":[1,3,5,7,9,11,13,15,17,19,21,23,-1,-1,-1,25,27,29,31,33,35,37,39,-1,-1,41,43,45,47,49,51,53,55,57,59,61,63,-1,-1,65,67,69,71,73,-1,-1,-1,75,77,79,81,83,-1,85,87,89,91,93,95,97,-1,99,-1,-1,101,103,105,107,109,-1,-1,-1,-1,-1,-1,-1,-1,-1,-1,-1,-1,-1,-1,-1,-1,-1,-1,-1,-1,-1,-1,-1,-1,-1,-1,-1,-1,-1,-1,-1,-1,-1,-1,-1,-1,-1,-1,-1,-1,-1,-1],"loss_changes":[4.501938E2,4.4821863E2,2.6943756E1,4.983612E1,1.5630164E2,3.8478088E0,1.904507E1,1.9201958E1,5.4006706E1,2.4012833E1,1.5464941E2,8.02376E0,0E0,0E0,0E0,1.0049416E1,7.244934E0,1.9934534E1,2.2642338E1,2.0197891E1,2.2232895E1,2.9681787E1,7.637811E1,0E0,0E0,1.1572304E1,6.952837E0,2.8175583E0,5.5631485E0,6.9122562E0,1.0188442E1,9.0586E0,2.276561E1,1.0262195E1,5.7165585E0,1.2802708E1,1.2338467E1,0E0,0E0,4.518918E1,1.3437103E2,6.604496E0,4.9507403E0,6.23571E0,0E0,0E0,0E0,2.5159254E0,2.5656867E0,5.48106E0,6.932376E0,4.8967996E0,0E0,1.0671498E1,2.567091E0,1.2149414E1,1.4324425E1,1.827885E1,8.800865E0,2.3297997E0,0E0,4.3796263E0,0E0,0E0,1.3029713E1,4.482733E1,2.2947006E1,6.741021E1,5.2779724E1,0E0,0E0,0E0,0E0,0E0,0E0,0E0,0E0,0E0,0E0,0E0,0E0,0E0,0E0,0E0,0E0,0E0,0E0,0E0,0E0,0E0,0E0,0E0,0E0,0E0,0E0,0E0,0E0,0E0,0E0,0E0,0E0,0E0,0E0,0E0,0E0,0E0,0E0,0E0,0E0,0E0,0E0],"parents":[2147483647,0,0,1,1,2,2,3,3,4,4,5,5,6,6,7,7,8,8,9,9,10,10,11,11,15,15,16,16,17,17,18,18,19,19,20,20,21,21,22,22,25,25,26,26,27,27,28,28,29,29,30,30,31,31,32,32,33,33,34,34,35,35,36,36,39,39,40,40,41,41,42,42,43,43,47,47,48,48,49,49,50,50,51,51,53,53,54,54,55,55,56,56,57,57,58,58,59,59,61,61,64,64,65,65,66,66,67,67,68,68],"right_children":[2,4,6,8,10,12,14,16,18,20,22,24,-1,-1,-1,26,28,30,32,34,36,38,40,-1,-1,42,44,46,48,50,52,54,56,58,60,62,64,-1,-1,66,68,70,72,74,-1,-1,-1,76,78,80,82,84,-1,86,88,90,92,94,96,98,-1,100,-1,-1,102,104,106,108,110,-1,-1,-1,-1,-1,-1,-1,-1,-1,-1,-1,-1,-1,-1,-1,-1,-1,-1,-1,-1,-1,-1,-1,-1,-1,-1,-1,-1,-1,-1,-1,-1,-1,-1,-1,-1,-1,-1,-1,-1,-1,-1],"split_conditions":[1.6296296E0,5.2E1,6.741922E1,4.1E1,2E0,1E0,5E0,1.0080142E0,1.05E2,1E0,4.4834663E1,3E1,-3.20478E-2,-2.148595E-2,8.432341E-2,1E0,1.4828197E2,1E0,5.288299E1,1E0,1E0,9.8904755E1,4E0,-2.3915349E-2,4.0059004E-2,1E2,2.0082956E1,1.5253263E1,1E0,1E0,1E0,2.5925234E1,3E0,6.027563E-1,9.881899E1,7.7E1,5.2E1,7.212947E-2,-3.1155158E-2,1.1537722E2,5.561907E1,9.73E1,9.835659E1,9.75E1,-1.5496549E-2,3.968758E-3,-2.6124084E-2,1E0,1.5995897E2,1E0,4.6E1,7.565249E1,6.445021E-2,9.73E1,4.5279026E1,1E0,5.8074097E1,7.6E1,1.2055365E2,1.8E1,-0E0,6.8E1,3.8926076E-2,-1.8242138E-2,9.1E1,6.3E1,5.6350296E1,1.1826087E0,3.5113506E1,1.5028871E-3,-1.8255396E-2,6.4763324E-3,-1.0152792E-2,-1.3338998E-2,1.388125E-2,-1.817417E-2,1.1245034E-2,4.611252E-2,-3.1076706E-4,-1.8965155E-2,3.1981461E-3,-1.4001272E-2,2.3979072E-2,2.9058842E-2,-7.7061057E-3,-1.7683161E-2,7.45168E-2,4.322462E-3,-2.8239632E-2,3.60078E-3,5.6858726E-2,1.2744406E-2,7.602107E-2,-1.6931221E-3,4.063906E-2,-1.0762787E-2,1.8126912E-2,1.7494274E-2,6.622627E-2,8.003519E-3,-1.6100055E-2,6.863468E-2,-8.381351E-3,6.1634947E-2,1.9500881E-2,1.6154168E-2,8.253364E-2,7.3743634E-2,-1.4158516E-2,8.048943E-2,-1.5998973E-2],"split_indices":[22,0,6,0,28,27,0,22,3,19,6,0,0,0,0,9,3,20,6,11,9,2,28,0,0,3,4,4,9,9,27,4,28,22,2,0,3,0,0,3,6,2,2,2,0,0,0,28,3,27,0,6,0,2,6,27,6,0,3,4,0,0,0,0,0,6,6,22,4,0,0,0,0,0,0,0,0,0,0,0,0,0,0,0,0,0,0,0,0,0,0,0,0,0,0,0,0,0,0,0,0,0,0,0,0,0,0,0,0,0,0],"split_type":[0,0,0,0,0,0,0,0,0,0,0,0,0,0,0,0,0,0,0,0,0,0,0,0,0,0,0,0,0,0,0,0,0,0,0,0,0,0,0,0,0,0,0,0,0,0,0,0,0,0,0,0,0,0,0,0,0,0,0,0,0,0,0,0,0,0,0,0,0,0,0,0,0,0,0,0,0,0,0,0,0,0,0,0,0,0,0,0,0,0,0,0,0,0,0,0,0,0,0,0,0,0,0,0,0,0,0,0,0,0,0],"sum_hessian":[4.439497E3,3.4679026E3,9.715944E2,1.7611199E3,1.7067827E3,9.583431E2,1.3251347E1,1.2953081E3,4.658117E2,6.021206E2,1.1046622E3,2.320221E1,9.3514087E2,6.3780684E0,6.8732786E0,8.560225E2,4.392856E2,3.1445026E2,1.5136147E2,4.5664297E2,1.4547758E2,9.390553E1,1.01075665E3,1.8920994E1,4.2812147E0,6.992115E2,1.5681102E2,3.904355E2,4.885013E1,2.727569E2,4.1693356E1,3.552366E1,1.158378E2,4.2948993E2,2.7153059E1,9.7961395E1,4.7516197E1,5.527401E0,8.837813E1,5.952121E2,4.155446E2,5.251531E2,1.7405838E2,1.13633125E2,4.3177895E1,5.970365E0,3.8446512E2,4.0588673E1,8.261458E0,2.2925018E2,4.350673E1,3.21368E1,9.556557E0,8.756922E0,2.6766735E1,6.0176273E1,5.566153E1,1.3314902E2,2.963409E2,1.9853283E1,7.299776E0,7.3762955E1,2.4198439E1,4.423031E0,4.309317E1,5.182326E2,7.6979485E1,1.0477117E2,3.107734E2,4.3488853E1,4.8166425E2,8.911541E1,8.494297E1,2.4776997E1,8.885613E1,3.4045532E1,6.5431385E0,4.8539877E0,3.4074702E0,1.9966423E2,2.958594E1,2.1187914E1,2.2318813E1,1.3532086E1,1.8604712E1,4.174736E0,4.5821857E0,5.893056E0,2.087368E1,4.777232E1,1.2403955E1,1.3640332E1,4.2021194E1,1.0159925E2,3.1549767E1,2.69543E2,2.6797903E1,7.136603E0,1.2716681E1,4.4377552E1,2.93854E1,3.784907E1,5.2440987E0,7.35103E1,4.447223E2,1.9397488E1,5.7582E1,2.810235E1,7.666882E1,2.9697952E2,1.3793901E1],"tree_param":{"num_deleted":"0","num_feature":"29","num_nodes":"111","size_leaf_vector":"1"}},{"base_weights":[-2.2858786E-3,-5.902735E-1,1.4125957E0,1.0032371E0,-6.981639E-1,7.427243E-2,1.1783993E0,-3.5488617E-2,1.4060159E0,6.533306E-2,-7.0760196E-1,1.4371892E0,5.0270325E-1,-2.0381492E-2,7.2332114E-2,-1.947025E-1,-7.229059E-1,7.321769E-2,4.3347296E-1,-3.3472296E-2,8.080491E-1,-3.59119E-2,4.449169E-1,-6.084995E-1,-7.346904E-1,-1.9900616E-2,5.124704E-2,6.988411E-2,4.454191E-1,-2.095056E-1,5.271837E-2,-6.6778004E-1,-8.671932E-2,-3.708633E-2,-5.432228E-1,-3.3448744E-1,6.628156E-2,4.318246E-2,-3.248496E-2,-3.710066E-2,-1.8716639E-2,-3.3616416E-2,4.2706367E-2,-3.6498155E-2,6.3879983E-3,-3.3992443E-2,5.124704E-2],"categories":[],"categories_nodes":[],"categories_segments":[],"categories_sizes":[],"default_left":[0,0,0,0,0,0,0,0,0,0,0,0,0,0,0,0,0,0,0,0,0,0,0,0,0,0,0,0,0,0,0,0,0,0,0,0,0,0,0,0,0,0,0,0,0,0,0],"id":3,"left_children":[1,3,5,7,9,-1,11,-1,13,-1,15,17,19,-1,-1,21,23,-1,25,-1,27,-1,29,31,33,-1,-1,-1,35,37,-1,39,41,-1,43,45,-1,-1,-1,-1,-1,-1,-1,-1,-1,-1,-1],"loss_changes":[4.733306E3,6.923563E2,2.3663818E1,1.7858508E2,7.281616E1,0E0,6.885675E1,0E0,1.7003815E1,0E0,2.8697021E1,5.7730713E0,4.2842308E1,0E0,0E0,3.8395317E1,3.3417969E0,0E0,6.5634265E0,0E0,1.7858742E1,0E0,2.1352789E1,1.05039215E1,2.979248E0,0E0,0E0,0E0,4.3567837E1,1.3318432E1,0E0,5.8156433E0,2.278256E1,0E0,1.63358E1,1.7126629E1,0E0,0E0,0E0,0E0,0E0,0E0,0E0,0E0,0E0,0E0,0E0],"parents":[2147483647,0,0,1,1,2,2,3,3,4,4,6,6,8,8,10,10,11,11,12,12,15,15,16,16,18,18,20,20,22,22,23,23,24,24,28,28,29,29,31,31,32,32,34,34,35,35],"right_children":[2,4,6,8,10,-1,12,-1,14,-1,16,18,20,-1,-1,22,24,-1,26,-1,28,-1,30,32,34,-1,-1,-1,36,38,-1,40,42,-1,44,46,-1,-1,-1,-1,-1,-1,-1,-1,-1,-1,-1],"split_conditions":[1E0,6.2359055E1,6.8666664E1,8E0,7.170542E1,7.427243E-2,8.9312977E-1,-3.5488617E-2,1.985432E1,6.533306E-2,6.791941E1,1E0,1.12E2,-2.0381492E-2,7.2332114E-2,1E0,7.5333336E1,7.321769E-2,2.8366564E1,-3.3472296E-2,6E0,-3.59119E-2,1.2571166E2,8.1E1,1.8E2,-1.9900616E-2,5.124704E-2,6.988411E-2,1.4966428E0,1.5253263E1,5.271837E-2,1E0,1.21E2,-3.708633E-2,5.4545456E-1,1E1,6.628156E-2,4.318246E-2,-3.248496E-2,-3.710066E-2,-1.8716639E-2,-3.3616416E-2,4.2706367E-2,-3.6498155E-2,6.3879983E-3,-3.3992443E-2,5.124704E-2],"split_indices":[8,23,23,7,5,0,22,0,4,0,23,13,3,0,0,9,23,0,4,0,7,0,3,0,5,0,0,0,22,4,0,19,3,0,22,7,0,0,0,0,0,0,0,0,0,0,0],"split_type":[0,0,0,0,0,0,0,0,0,0,0,0,0,0,0,0,0,0,0,0,0,0,0,0,0,0,0,0,0,0,0,0,0,0,0,0,0,0,0,0,0,0,0,0,0,0,0],"sum_hessian":[5.686019E3,4.0178325E3,1.6681864E3,2.5343526E2,3.7643972E3,1.2626014E3,4.05585E2,4.7719494E1,2.0571577E2,1.6102228E1,3.748295E3,2.9110037E2,1.1448465E2,3.841654E0,2.0187411E2,1.1034295E2,3.637952E3,2.820509E2,9.049449E0,2.2828644E1,9.1656006E1,6.0972324E1,4.9370625E1,3.5352942E2,3.2844226E3,3.6820393E0,5.367409E0,3.2204456E1,5.9451546E1,2.4044222E1,2.5326403E1,3.1609894E2,3.74305E1,3.1599402E3,1.2448236E2,3.1878094E1,2.7573454E1,6.103817E0,1.7940405E1,2.4848E2,6.7618935E1,2.375005E1,1.368045E1,9.782593E1,2.6656427E1,2.6510683E1,5.367409E0],"tree_param":{"num_deleted":"0","num_feature":"29","num_nodes":"47","size_leaf_vector":"1"}},{"base_weights":[3.7644216E-4,6.549469E-1,-5.3212506E-1,1.0033463E0,7.2734244E-2,-8.071847E-2,-3.1790376E-2,1.1502026E0,-3.0913422E-2,2.4341683E-1,-4.2158008E-1,1.0492183E0,-3.0986348E-1,1.2855208E0,1.1700888E-1,3.3973157E-1,-3.0147154E-2,-2.5634004E-2,-1.6424079E-1,1.3719829E0,-2.574694E-2,2.0940563E-1,-4.573085E-1,1.3911681E0,5.484844E-1,1.3604133E0,-7.143474E-2,1.1653379E-1,6.2480396E-1,1.12122465E-2,-2.6908413E-2,7.511201E-2,3.218482E-1,9.432129E-1,-3.8249377E-2,-2.572673E-1,-2.7004603E-2,1.5722314E0,1.0276057E0,6.999728E-1,-4.1097905E-3,1.548913E-2,8.090142E-2,-3.1791222E-1,4.6292388E-1,4.1141453E-1,-4.0895224E-2,8.313131E-1,1.8064417E-1,1.955304E-2,-6.622272E-3,3.5886526E-2,-9.330242E-3,-0E0,6.213906E-2,-2.1788353E-1,5.9412265E-1,-2.107228E-2,1.8452452E-1,8.1823066E-2,5.340431E-2,2.7713034E-2,6.041732E-2,4.8482966E-2,8.548085E-3,1.884987E-2,-1.0785717E-2,3.0110648E-2,-1.9404886E-2,3.818373E-2,2.624131E-3,4.1074034E-2,6.852377E-3,3.3715066E-2,-3.514674E-3,4.73732E-2,9.829306E-3,1.7779328E-2,-1.1664136E-2,6.1302446E-3,-2.223307E-2,4.6408907E-2,-9.278365E-3,2.4183895E-2,-1.2622689E-2],"categories":[],"categories_nodes":[],"categories_segments":[],"categories_sizes":[],"default_left":[0,0,0,0,0,0,0,0,0,0,0,0,0,0,0,0,0,0,0,0,0,0,0,0,0,0,0,0,0,0,0,0,0,0,0,0,0,0,0,0,0,0,0,0,0,0,0,0,0,0,0,0,0,0,0,0,0,0,0,0,0,0,0,0,0,0,0,0,0,0,0,0,0,0,0,0,0,0,0,0,0,0,0,0,0],"id":4,"left_children":[1,3,5,7,9,11,-1,13,-1,15,17,19,21,23,25,27,-1,-1,29,31,-1,33,35,37,39,41,43,45,47,49,-1,-1,51,53,55,57,-1,59,61,63,65,-1,-1,67,69,71,73,75,77,-1,-1,-1,-1,-1,-1,79,81,-1,83,-1,-1,-1,-1,-1,-1,-1,-1,-1,-1,-1,-1,-1,-1,-1,-1,-1,-1,-1,-1,-1,-1,-1,-1,-1,-1],"loss_changes":[1.5297651E3,3.987323E2,1.12781006E2,2.9489587E2,6.2540184E1,1.1812182E2,0E0,1.5697717E2,0E0,4.5274986E1,3.944645E0,4.0626366E1,2.9432896E1,7.525159E1,3.2115147E1,3.1132427E1,0E0,0E0,3.8197918E0,6.9429016E0,0E0,1.5922105E1,4.251339E0,5.28313E1,1.1158695E1,2.909893E0,1.5692881E1,1.3329695E1,1.9096176E1,2.2965949E0,0E0,0E0,2.5635808E0,5.7539883E0,7.427229E0,6.9969454E0,0E0,1.3836182E1,2.3136475E1,1.3653713E1,2.424667E0,0E0,0E0,5.669612E0,4.1102734E0,1.0499701E1,3.6790843E0,9.877747E0,5.4545937E0,0E0,0E0,0E0,0E0,0E0,0E0,4.3248453E0,4.426624E0,0E0,3.7165987E0,0E0,0E0,0E0,0E0,0E0,0E0,0E0,0E0,0E0,0E0,0E0,0E0,0E0,0E0,0E0,0E0,0E0,0E0,0E0,0E0,0E0,0E0,0E0,0E0,0E0,0E0],"parents":[2147483647,0,0,1,1,2,2,3,3,4,4,5,5,7,7,9,9,10,10,11,11,12,12,13,13,14,14,15,15,18,18,19,19,21,21,22,22,23,23,24,24,25,25,26,26,27,27,28,28,29,29,32,32,33,33,34,34,35,35,37,37,38,38,39,39,40,40,43,43,44,44,45,45,46,46,47,47,48,48,55,55,56,56,58,58],"right_children":[2,4,6,8,10,12,-1,14,-1,16,18,20,22,24,26,28,-1,-1,30,32,-1,34,36,38,40,42,44,46,48,50,-1,-1,52,54,56,58,-1,60,62,64,66,-1,-1,68,70,72,74,76,78,-1,-1,-1,-1,-1,-1,80,82,-1,84,-1,-1,-1,-1,-1,-1,-1,-1,-1,-1,-1,-1,-1,-1,-1,-1,-1,-1,-1,-1,-1,-1,-1,-1,-1,-1],"split_conditions":[8.5294116E-1,2E0,1.0080142E0,1E0,2.0082956E1,2.5E1,-3.1790376E-2,2.0082956E1,-3.0913422E-2,1E0,1.04333336E2,1E0,1E0,7E1,2.3E1,9.8333336E1,-3.0147154E-2,-2.5634004E-2,1E0,9.928129E-1,-2.574694E-2,3.4E1,1.8151241E1,1E0,7.0714283E-1,6.48855E-1,9.9E1,6.2992126E-1,1E0,9.071437E1,-2.6908413E-2,7.511201E-2,9.625919E1,9.5E1,9.2666664E1,1.8E1,-2.7004603E-2,1E0,7.224338E1,1E0,1E0,1.548913E-2,8.090142E-2,6.9E1,5.9E1,6.7E1,2.5E1,1E0,4E0,1.955304E-2,-6.622272E-3,3.5886526E-2,-9.330242E-3,-0E0,6.213906E-2,1.8151241E1,6.1E1,-2.107228E-2,6.7E1,8.1823066E-2,5.340431E-2,2.7713034E-2,6.041732E-2,4.8482966E-2,8.548085E-3,1.884987E-2,-1.0785717E-2,3.0110648E-2,-1.9404886E-2,3.818373E-2,2.624131E-3,4.1074034E-2,6.852377E-3,3.3715066E-2,-3.514674E-3,4.73732E-2,9.829306E-3,1.7779328E-2,-1.1664136E-2,6.1302446E-3,-2.223307E-2,4.6408907E-2,-9.278365E-3,2.4183895E-2,-1.2622689E-2],"split_indices":[22,28,22,8,4,0,0,4,0,8,23,8,28,0,0,23,0,0,8,22,0,0,4,28,22,22,23,22,9,3,0,0,23,3,23,4,0,9,6,9,28,0,0,3,0,0,0,14,28,0,0,0,0,0,0,4,0,0,0,0,0,0,0,0,0,0,0,0,0,0,0,0,0,0,0,0,0,0,0,0,0,0,0,0,0],"split_type":[0,0,0,0,0,0,0,0,0,0,0,0,0,0,0,0,0,0,0,0,0,0,0,0,0,0,0,0,0,0,0,0,0,0,0,0,0,0,0,0,0,0,0,0,0,0,0,0,0,0,0,0,0,0,0,0,0,0,0,0,0,0,0,0,0,0,0,0,0,0,0,0,0,0,0,0,0,0,0,0,0,0,0,0,0],"sum_hessian":[4.3846416E3,1.9670948E3,2.4175466E3,1.2292183E3,7.3787665E2,4.531273E2,1.9644194E3,1.1279581E3,1.01260155E2,5.499947E2,1.8788191E2,7.482384E1,3.7830344E2,9.9647644E2,1.3148164E2,4.9540604E2,5.4588654E1,1.3585931E2,5.202261E1,6.2493626E1,1.233021E1,8.272667E1,2.9557678E2,8.694023E2,1.27074135E2,1.6016321E1,1.1546532E2,2.8042136E2,2.149847E2,3.581873E1,1.6203878E1,5.4407787E1,8.085837E0,1.9966694E1,6.2759975E1,9.068865E1,2.0488812E2,5.75009E2,2.943933E2,1.0002472E2,2.7049412E1,4.403486E0,1.1612834E1,8.0212456E1,3.525286E1,9.758465E1,1.828367E2,1.4479446E2,7.019023E1,9.8391E0,2.5979631E1,4.6362376E0,3.4495997E0,5.588195E0,1.43785E1,5.0512707E1,1.2247269E1,6.701023E1,2.3678423E1,5.051654E2,6.9843575E1,8.436031E1,2.1003299E2,6.452116E1,3.5503563E1,8.255265E0,1.8794147E1,4.1054754E0,7.610698E1,1.864864E1,1.6604221E1,3.678925E1,6.0795395E1,4.8150673E0,1.7802164E2,1.208978E2,2.3896667E1,5.0385216E1,1.9805017E1,1.967949E1,3.0833218E1,8.756126E0,3.491142E0,1.4608198E1,9.070225E0],"tree_param":{"num_deleted":"0","num_feature":"29","num_nodes":"85","size_leaf_vector":"1"}},{"base_weights":[-7.003166E-4,3.5408002E-1,-5.903986E-1,-2.9937318E-1,1.0031804E0,1.624864E-1,-3.0895246E-2,-5.0402874E-1,1.1051111E0,1.0946207E0,-3.0605763E-2,-2.973421E-2,8.2198195E-2,-5.278735E-1,1.0372392E0,1.3780977E0,-2.8491382E-2,1.1787087E0,-2.4778783E-2,-5.855247E-1,-7.1870744E-2,-1.6953973E-2,7.416015E-2,-2.5254464E-2,1.5401485E0,8.400618E-1,1.494804E0,-2.9549519E-2,4.1144915E-2,-3.2670295E-1,1.2875991E0,-1.8598763E-2,1.6112931E0,2.0244749E-1,1.4661139E0,1.6692989E0,-0E0,-1.8914286E-2,3.2832175E-2,-2.18868E-2,1.3766134E-2,7.6766156E-2,-0E0,-1.63258E-2,8.3660565E-2,-2.9639322E-2,2.5021328E-2,-2.7445002E-2,7.905515E-2,9.2452876E-2,5.3563494E-2,5.726549E-2,-1.4293129E-2],"categories":[],"categories_nodes":[],"categories_segments":[],"categories_sizes":[],"default_left":[0,0,0,0,0,0,0,0,0,0,0,0,0,0,0,0,0,0,0,0,0,0,0,0,0,0,0,0,0,0,0,0,0,0,0,0,0,0,0,0,0,0,0,0,0,0,0,0,0,0,0,0,0],"id":5,"left_children":[1,3,5,7,9,11,-1,13,15,17,-1,-1,-1,19,21,23,-1,25,-1,27,29,-1,-1,-1,31,33,35,-1,37,39,41,-1,43,45,47,49,51,-1,-1,-1,-1,-1,-1,-1,-1,-1,-1,-1,-1,-1,-1,-1,-1],"loss_changes":[9.2401886E2,1.1702284E3,3.479248E1,3.960096E2,2.0597351E2,6.914463E1,0E0,4.5005127E1,8.2073425E1,1.7676843E2,0E0,0E0,0E0,3.0741333E1,1.3033379E1,4.829834E1,0E0,1.2967078E2,0E0,3.9227295E0,4.7566795E1,0E0,0E0,0E0,2.0891968E1,2.4077267E2,1.6723547E2,0E0,3.2600317E0,8.120094E0,7.0928955E0,0E0,1.8060883E1,7.2421104E1,7.302191E1,5.628418E1,2.322054E1,0E0,0E0,0E0,0E0,0E0,0E0,0E0,0E0,0E0,0E0,0E0,0E0,0E0,0E0,0E0,0E0],"parents":[2147483647,0,0,1,1,2,2,3,3,4,4,5,5,7,7,8,8,9,9,13,13,14,14,15,15,17,17,19,19,20,20,24,24,25,25,26,26,28,28,29,29,30,30,32,32,33,33,34,34,35,35,36,36],"right_children":[2,4,6,8,10,12,-1,14,16,18,-1,-1,-1,20,22,24,-1,26,-1,28,30,-1,-1,-1,32,34,36,-1,38,40,42,-1,44,46,48,50,52,-1,-1,-1,-1,-1,-1,-1,-1,-1,-1,-1,-1,-1,-1,-1,-1],"split_conditions":[8E0,7.8125E-1,2.4E1,9.911805E1,1E0,1.0080142E0,-3.0895246E-2,1E0,1.46E2,8.1E1,-3.0605763E-2,-2.973421E-2,8.2198195E-2,6E0,4E0,4E0,-2.8491382E-2,1.0080142E0,-2.4778783E-2,7.7705747E-1,2.0082956E1,-1.6953973E-2,7.416015E-2,-2.5254464E-2,2.5E1,9.881899E1,4E0,-2.9549519E-2,2.0082956E1,7.283938E-1,1.4E2,-1.8598763E-2,5.555556E-1,9.8E1,2.5E1,5.1E1,6E0,-1.8914286E-2,3.2832175E-2,-2.18868E-2,1.3766134E-2,7.6766156E-2,-0E0,-1.63258E-2,8.3660565E-2,-2.9639322E-2,2.5021328E-2,-2.7445002E-2,7.905515E-2,9.2452876E-2,5.3563494E-2,5.726549E-2,-1.4293129E-2],"split_indices":[7,22,0,2,8,22,0,16,5,0,0,0,0,7,7,7,0,22,0,22,4,0,0,0,0,2,28,0,4,22,5,0,22,2,0,0,7,0,0,0,0,0,0,0,0,0,0,0,0,0,0,0,0],"split_type":[0,0,0,0,0,0,0,0,0,0,0,0,0,0,0,0,0,0,0,0,0,0,0,0,0,0,0,0,0,0,0,0,0,0,0,0,0,0,0,0,0,0,0,0,0,0,0,0,0,0,0,0,0],"sum_hessian":[4.412071E3,2.754707E3,1.6573639E3,1.3729038E3,1.3818032E3,5.7430202E1,1.5999337E3,1.1997235E3,1.7318037E2,1.3086746E3,7.312862E1,3.857468E1,1.8855518E1,1.1830599E3,1.6663559E1,1.4947195E2,2.3708418E1,1.2437389E3,6.493565E1,1.0487986E3,1.342613E2,3.920968E0,1.2742591E1,1.1263229E1,1.3820872E2,6.0474554E2,6.389934E2,1.0406342E3,8.164495E0,1.146562E2,1.9605112E1,4.402395E0,1.3380634E2,3.0131308E2,3.0343243E2,5.7200415E2,6.698925E1,4.830921E0,3.3335745E0,9.796466E1,1.6691534E1,1.6204626E1,3.4004865E0,3.6284275E0,1.301779E2,8.113275E1,2.2018033E2,1.57387495E1,2.876937E2,4.3594543E2,1.3605873E2,1.2161982E1,5.4827267E1],"tree_param":{"num_deleted":"0","num_feature":"29","num_nodes":"53","size_leaf_vector":"1"}},{"base_weights":[-7.564166E-3,2.0439608E-1,-5.260438E-1,-1.6378258E-1,5.969629E-1,-6.2042624E-1,-1.6918777E-1,-2.422773E-1,1.0518711E-1,1.6566008E-1,8.286963E-1,2.9702154E-1,-3.1668972E-2,-5.670593E-1,9.3219984E-1,-3.7151653E-1,-1.1613367E-1,-8.8868596E-2,4.6966383E-1,-5.516901E-2,4.26573E-1,-2.9734006E-2,9.5510185E-1,-2.3344947E-2,7.293405E-2,6.232096E-2,-3.0777613E-2,1.4119532E0,-2.7617637E-2,-8.761254E-2,-4.1749242E-1,-1.5405299E-1,2.4198803E-1,-2.2347122E-1,3.2149744E-1,-4.5263407E-1,8.2232565E-1,3.93797E-1,-2.231804E-1,2.9510233E-1,7.8310364E-1,7.320543E-1,1.287283E0,-2.3247471E-2,1.7664245E0,3.4411862E-1,-1.9409253E-1,-4.3947962E-1,-5.8945287E-2,3.751455E-2,-1.6269341E-1,6.761205E-2,3.6515202E-2,-3.4414524E-1,2.2085032E-1,1.0411799E0,1.46048395E-2,4.5368215E-3,-2.8953267E-2,2.8175765E-1,1.3828801E0,9.206887E-1,1.2297036E-1,-2.698929E-1,6.6013557E-1,-2.4679864E-2,4.3335366E-1,5.9920067E-1,5.8371585E-2,5.853263E-1,1.6054124E0,2.6459655E-1,1.5295851E0,9.957852E-2,-1.723824E-2,-0E0,4.5997493E-2,-1.2974898E-2,2.4147404E-2,-1.5091372E-2,-2.4785366E-2,-2.0452376E-2,2.2498287E-2,-9.995997E-3,1.2126768E-3,-2.8119578E-3,4.290068E-2,-4.4877795E-3,-2.6069883E-2,2.4730524E-2,-1.2240007E-3,6.8861335E-3,6.932846E-2,1.0402636E-2,-1.612558E-2,7.283063E-4,5.776267E-2,1.5650762E-2,7.823297E-2,1.8927671E-3,6.735342E-2,4.1821748E-2,-6.89452E-4,-8.3179504E-4,-2.0204656E-2,5.226882E-2,-0E0,-1.2273579E-2,6.5283366E-3,-1.7756725E-2,2.3466727E-2,3.9931294E-2,-0E0,6.904064E-3,4.3424662E-2,5.3872604E-2,9.0522334E-2,8.900728E-2,-1.6350893E-2,6.150623E-2,9.197116E-2],"categories":[],"categories_nodes":[],"categories_segments":[],"categories_sizes":[],"default_left":[0,0,0,0,0,0,0,0,0,0,0,0,0,0,0,0,0,0,0,0,0,0,0,0,0,0,0,0,0,0,0,0,0,0,0,0,0,0,0,0,0,0,0,0,0,0,0,0,0,0,0,0,0,0,0,0,0,0,0,0,0,0,0,0,0,0,0,0,0,0,0,0,0,0,0,0,0,0,0,0,0,0,0,0,0,0,0,0,0,0,0,0,0,0,0,0,0,0,0,0,0,0,0,0,0,0,0,0,0,0,0,0,0,0,0,0,0,0,0,0,0],"id":6,"left_children":[1,3,5,7,9,11,13,15,17,19,21,23,-1,25,27,29,31,33,35,37,39,-1,41,-1,-1,-1,-1,43,-1,45,47,49,51,53,55,57,59,61,63,65,67,69,71,-1,73,75,77,79,81,-1,83,85,-1,87,89,91,93,-1,-1,95,97,99,101,103,105,107,109,111,-1,113,115,117,119,-1,-1,-1,-1,-1,-1,-1,-1,-1,-1,-1,-1,-1,-1,-1,-1,-1,-1,-1,-1,-1,-1,-1,-1,-1,-1,-1,-1,-1,-1,-1,-1,-1,-1,-1,-1,-1,-1,-1,-1,-1,-1,-1,-1,-1,-1,-1,-1],"loss_changes":[4.8617673E2,4.5403638E2,4.264142E1,3.4332157E1,1.511518E2,1.25896E1,1.2025306E2,2.0153313E1,2.616294E1,3.1029823E1,1.7899426E2,1.5111761E1,0E0,1.8957123E1,5.3780785E1,7.73748E0,8.731179E0,1.3331821E1,4.2688454E1,2.1982643E1,1.0542931E1,0E0,6.4386475E1,0E0,0E0,0E0,0E0,3.9400673E1,0E0,4.2024717E0,3.874031E0,4.4968185E0,4.684574E0,1.0001767E1,1.2493296E1,2.8506193E0,2.6865055E1,1.0516986E1,8.961573E0,8.367884E0,2.2493515E0,6.735379E1,8.781183E1,0E0,2.4800842E1,3.7248313E0,3.4386597E0,3.1516037E0,6.4453387E0,0E0,4.1237326E0,5.1770816E0,0E0,6.149374E0,2.9003162E0,4.2075653E0,2.9426758E0,0E0,0E0,1.1239349E1,6.866211E0,8.942492E0,5.8085704E0,6.7274265E0,2.2493882E0,2.0544248E0,4.0723476E0,5.591284E0,0E0,5.9224792E1,3.0227814E0,6.6456474E1,2.0962708E1,0E0,0E0,0E0,0E0,0E0,0E0,0E0,0E0,0E0,0E0,0E0,0E0,0E0,0E0,0E0,0E0,0E0,0E0,0E0,0E0,0E0,0E0,0E0,0E0,0E0,0E0,0E0,0E0,0E0,0E0,0E0,0E0,0E0,0E0,0E0,0E0,0E0,0E0,0E0,0E0,0E0,0E0,0E0,0E0,0E0,0E0,0E0,0E0],"parents":[2147483647,0,0,1,1,2,2,3,3,4,4,5,5,6,6,7,7,8,8,9,9,10,10,11,11,13,13,14,14,15,15,16,16,17,17,18,18,19,19,20,20,22,22,27,27,29,29,30,30,31,31,32,32,33,33,34,34,35,35,36,36,37,37,38,38,39,39,40,40,41,41,42,42,44,44,45,45,46,46,47,47,48,48,50,50,51,51,53,53,54,54,55,55,56,56,59,59,60,60,61,61,62,62,63,63,64,64,65,65,66,66,67,67,69,69,70,70,71,71,72,72],"right_children":[2,4,6,8,10,12,14,16,18,20,22,24,-1,26,28,30,32,34,36,38,40,-1,42,-1,-1,-1,-1,44,-1,46,48,50,52,54,56,58,60,62,64,66,68,70,72,-1,74,76,78,80,82,-1,84,86,-1,88,90,92,94,-1,-1,96,98,100,102,104,106,108,110,112,-1,114,116,118,120,-1,-1,-1,-1,-1,-1,-1,-1,-1,-1,-1,-1,-1,-1,-1,-1,-1,-1,-1,-1,-1,-1,-1,-1,-1,-1,-1,-1,-1,-1,-1,-1,-1,-1,-1,-1,-1,-1,-1,-1,-1,-1,-1,-1,-1,-1,-1,-1],"split_conditions":[1E0,5.2E1,6.8666664E1,4.3E1,2E0,8E0,9.881899E1,1.16E2,3E0,1.3E2,7.50495E1,1.6005463E1,-3.1668972E-2,1.02E2,1E1,9.7761444E1,1E0,7E0,6.037817E1,8.0065216E1,7.6E1,-2.9734006E-2,4E0,-2.3344947E-2,7.293405E-2,6.232096E-2,-3.0777613E-2,6E0,-2.7617637E-2,7.1333336E1,4.1E1,7.613626E1,1.11333336E2,1.41E2,1.140036E2,2.5799404E1,2.2E1,8.6E1,9.37614E1,1.7889599E1,8.8E1,1.1424568E2,6.74483E1,-2.3247471E-2,8.8E1,1.9E1,8.4877045E1,9.5885506E1,2.1826517E1,3.751455E-2,8E0,4E0,3.6515202E-2,9.826234E1,8.916312E1,1.0011034E2,9.841005E1,4.5368215E-3,-2.8953267E-2,8E0,6E0,1E0,8.935818E1,7.334199E1,1.9158318E1,1.43E2,5.3E1,8.4E1,5.8371585E-2,1E0,6E0,2.5444202E1,1.0254438E2,9.957852E-2,-1.723824E-2,-0E0,4.5997493E-2,-1.2974898E-2,2.4147404E-2,-1.5091372E-2,-2.4785366E-2,-2.0452376E-2,2.2498287E-2,-9.995997E-3,1.2126768E-3,-2.8119578E-3,4.290068E-2,-4.4877795E-3,-2.6069883E-2,2.4730524E-2,-1.2240007E-3,6.8861335E-3,6.932846E-2,1.0402636E-2,-1.612558E-2,7.283063E-4,5.776267E-2,1.5650762E-2,7.823297E-2,1.8927671E-3,6.735342E-2,4.1821748E-2,-6.89452E-4,-8.3179504E-4,-2.0204656E-2,5.226882E-2,-0E0,-1.2273579E-2,6.5283366E-3,-1.7756725E-2,2.3466727E-2,3.9931294E-2,-0E0,6.904064E-3,4.3424662E-2,5.3872604E-2,9.0522334E-2,8.900728E-2,-1.6350893E-2,6.150623E-2,9.197116E-2],"split_indices":[8,0,23,0,28,7,2,5,28,5,5,4,0,5,7,2,20,7,23,23,0,0,28,0,0,0,0,7,0,23,0,23,23,5,5,4,4,3,6,4,0,3,23,0,0,0,6,3,4,0,7,28,0,2,6,3,2,0,0,7,7,28,5,6,4,5,0,0,0,19,7,4,3,0,0,0,0,0,0,0,0,0,0,0,0,0,0,0,0,0,0,0,0,0,0,0,0,0,0,0,0,0,0,0,0,0,0,0,0,0,0,0,0,0,0,0,0,0,0,0,0],"split_type":[0,0,0,0,0,0,0,0,0,0,0,0,0,0,0,0,0,0,0,0,0,0,0,0,0,0,0,0,0,0,0,0,0,0,0,0,0,0,0,0,0,0,0,0,0,0,0,0,0,0,0,0,0,0,0,0,0,0,0,0,0,0,0,0,0,0,0,0,0,0,0,0,0,0,0,0,0,0,0,0,0,0,0,0,0,0,0,0,0,0,0,0,0,0,0,0,0,0,0,0,0,0,0,0,0,0,0,0,0,0,0,0,0,0,0,0,0,0,0,0,0],"sum_hessian":[4.418508E3,3.1365134E3,1.2819945E3,1.6184766E3,1.5180369E3,1.01157214E3,2.7042236E2,1.2544436E3,3.640329E2,5.325118E2,9.855251E2,1.2935235E1,9.986369E2,1.997043E2,7.0718056E1,6.1573956E2,6.387041E2,2.3764554E2,1.2638737E2,2.8822626E2,2.4428552E2,7.945587E1,9.060693E2,8.265488E0,4.6697464E0,3.6458178E0,1.9605849E2,5.3774654E1,1.6943403E1,8.814221E1,5.2759735E2,5.798438E2,5.8860275E1,1.8055249E2,5.7093052E1,3.441054E1,9.197683E1,7.694564E1,2.1128061E2,1.8216864E2,6.2116886E1,5.468153E2,3.592539E2,8.219427E0,4.5555225E1,1.562603E1,7.251618E1,4.9537357E2,3.2223793E1,3.3152804E0,5.765285E2,4.5804493E1,1.3055782E1,1.4322893E2,3.732355E1,1.5150241E1,4.194281E1,5.855403E0,2.8555138E1,4.8807148E1,4.316968E1,2.3867079E1,5.3078564E1,2.025254E2,8.755215E0,5.438948E1,1.2777917E2,4.635495E1,1.5761933E1,4.7151212E2,7.530321E1,7.000998E1,2.8924396E2,4.1481613E1,4.0736136E0,1.0758476E1,4.867554E0,6.7926125E1,4.590056E0,1.4993729E2,3.4543628E2,1.990513E1,1.2318663E1,4.8290417E2,9.362436E1,4.0658634E1,5.14586E0,6.121204E1,8.201689E1,1.7642473E1,1.968108E1,5.364113E0,9.786128E0,2.8079044E1,1.3863768E1,3.937009E1,9.4370575E0,7.4597383E0,3.570994E1,8.864032E0,1.5003047E1,7.479959E0,4.5598602E1,7.2216034E1,1.3030936E2,4.34719E0,4.408025E0,2.3304358E1,3.1085121E1,4.1957846E0,1.2358338E2,3.398714E1,1.236781E1,1.8463434E2,2.8687778E2,2.5245358E1,5.0057854E1,1.876544E1,5.1244537E1,1.5296066E2,1.3628328E2],"tree_param":{"num_deleted":"0","num_feature":"29","num_nodes":"121","size_leaf_vector":"1"}},{"base_weights":[3.8880075E-3,-5.7770765E-1,1.319959E0,9.931941E-1,-6.978611E-1,1.3823206E0,1.1062187E0,-3.485648E-2,1.32839E0,-1.6057129E-1,-7.165862E-1,4.960794E-1,6.965693E-2,1.3537599E0,4.320889E-1,5.184339E-1,6.932377E-2,-5.784998E-1,6.916567E-1,-3.6289793E-2,-5.92775E-1,5.770884E-2,-2.6893793E-2,6.925012E-2,6.701869E-1,-3.2659844E-2,6.9154125E-1,-2.3584587E-2,4.7803946E-2,4.2992398E-1,-3.569927E-2,9.622554E-1,-2.5769545E-2,-1.720281E-1,-3.6427632E-2,5.7699718E-2,-2.2107739E-2,6.56825E-2,3.791943E-1,-1.9585626E-2,5.063921E-2,-1.7933024E-2,5.652619E-2,4.6542054E-1,-4.4727913E-1,8.422933E-1,-3.235468E-2,-2.4952041E-2,4.9489077E-2,6.528893E-3,-3.4082055E-2,-2.6614288E-2,5.7211608E-2],"categories":[],"categories_nodes":[],"categories_segments":[],"categories_sizes":[],"default_left":[0,0,0,0,0,0,0,0,0,0,0,0,0,0,0,0,0,0,0,0,0,0,0,0,0,0,0,0,0,0,0,0,0,0,0,0,0,0,0,0,0,0,0,0,0,0,0,0,0,0,0,0,0],"id":7,"left_children":[1,3,5,7,9,11,13,-1,15,17,19,21,-1,23,25,27,-1,29,31,-1,33,-1,-1,-1,35,-1,37,-1,-1,39,-1,41,-1,43,-1,-1,-1,-1,45,-1,-1,-1,-1,47,49,51,-1,-1,-1,-1,-1,-1,-1],"loss_changes":[4.362289E3,7.47161E2,1.8980713E1,1.6156247E2,3.6280518E1,1.0543457E1,6.5749054E1,0E0,8.698975E0,4.6034298E1,2.5252686E0,1.5058229E1,0E0,3.4320068E0,3.263435E1,9.612451E0,0E0,1.2615486E1,1.5050383E1,0E0,1.4168213E1,0E0,0E0,0E0,1.0794546E1,0E0,1.6079876E1,0E0,0E0,6.41601E0,0E0,9.117794E0,0E0,1.2166115E1,0E0,0E0,0E0,0E0,3.1962408E1,0E0,0E0,0E0,0E0,1.1673187E1,7.004772E0,2.0542381E1,0E0,0E0,0E0,0E0,0E0,0E0,0E0],"parents":[2147483647,0,0,1,1,2,2,3,3,4,4,5,5,6,6,8,8,9,9,10,10,11,11,13,13,14,14,15,15,17,17,18,18,20,20,24,24,26,26,29,29,31,31,33,33,38,38,43,43,44,44,45,45],"right_children":[2,4,6,8,10,12,14,-1,16,18,20,22,-1,24,26,28,-1,30,32,-1,34,-1,-1,-1,36,-1,38,-1,-1,40,-1,42,-1,44,-1,-1,-1,-1,46,-1,-1,-1,-1,48,50,52,-1,-1,-1,-1,-1,-1,-1],"split_conditions":[1E0,6.2359055E1,6.8666664E1,8E0,6.791941E1,8E0,8.9753723E-1,-3.485648E-2,1.3697641E0,1E0,8.1E1,6E0,6.965693E-2,1E0,1.12E2,1E0,6.932377E-2,6.8E1,1E0,-3.6289793E-2,8.3E1,5.770884E-2,-2.6893793E-2,6.925012E-2,6E0,-3.2659844E-2,6E0,-2.3584587E-2,4.7803946E-2,6.5E1,-3.569927E-2,7E0,-2.5769545E-2,7.5E1,-3.6427632E-2,5.7699718E-2,-2.2107739E-2,6.56825E-2,7.457893E1,-1.9585626E-2,5.063921E-2,-1.7933024E-2,5.652619E-2,1.21E2,3E0,8E0,-3.235468E-2,-2.4952041E-2,4.9489077E-2,6.528893E-3,-3.4082055E-2,-2.6614288E-2,5.7211608E-2],"split_indices":[8,23,23,7,23,7,22,0,22,20,0,7,0,26,3,20,0,3,11,0,0,0,0,0,7,0,7,0,0,3,0,7,0,23,0,0,0,0,23,0,0,0,0,3,7,7,0,0,0,0,0,0,0],"split_type":[0,0,0,0,0,0,0,0,0,0,0,0,0,0,0,0,0,0,0,0,0,0,0,0,0,0,0,0,0,0,0,0,0,0,0,0,0,0,0,0,0,0,0,0,0,0,0,0,0,0,0,0,0],"sum_hessian":[5.6947227E3,3.9499226E3,1.7448002E3,2.793231E2,3.6705996E3,1.3404364E3,4.0436377E2,4.5619946E1,2.3370314E2,1.2516001E2,3.5454395E3,1.7852459E1,1.322584E3,2.93743E2,1.1062077E2,1.7542692E1,2.1616046E2,8.48024E1,4.0357605E1,3.2871614E3,2.582782E2,1.1062422E1,6.790038E0,2.7824234E2,1.5500659E1,2.0385628E1,9.0235146E1,4.979355E0,1.2563337E1,9.092176E0,7.571023E1,3.3636692E1,6.7209134E0,6.501782E1,1.9326038E2,1.106333E1,4.4373293E0,2.7483454E1,6.2751694E1,3.6894093E0,5.4027677E0,3.2092795E0,3.0427414E1,1.8643465E1,4.637436E1,4.3822926E1,1.8928768E1,6.2643776E0,1.23790865E1,1.3021063E1,3.33533E1,7.319426E0,3.65035E1],"tree_param":{"num_deleted":"0","num_feature":"29","num_nodes":"53","size_leaf_vector":"1"}},{"base_weights":[-1.556145E-2,6.1954576E-1,-5.170557E-1,7.5373024E-1,-3.0988539E-2,-6.549923E-2,-3.149631E-2,1.0832101E0,1.6314323E-1,1.0768586E0,-2.9305458E-1,1.2190468E0,6.346028E-2,3.2649395E-1,-3.291212E-1,1.2560227E0,-2.2721954E-2,2.4909985E-1,-4.4900495E-1,1.3310101E0,6.356279E-1,1.1331768E0,-1.0258381E-1,4.7085938E-1,-0E0,-4.9596927E-1,1.781339E-1,6.695064E-2,-5.057264E-3,1.1064799E0,7.1001076E-3,1.6395567E-1,-4.9682727E-1,1.4931716E0,1.0851011E0,8.7634593E-1,3.0182323E-1,6.976149E-2,1.2387774E-2,-2.8023064E-1,7.258337E-1,8.930631E-2,6.3387805E-1,2.9353705E-1,-8.601381E-2,1.1738005E-2,-2.7032001E-2,3.9599717E-1,-1.6438557E-2,7.122023E-2,-0E0,-1.3882548E-1,6.430735E-1,4.4226557E-2,-2.7186784E-3,-1.1994425E-2,-2.7086172E-2,7.604113E-2,2.6278097E-2,6.1265882E-2,3.324732E-2,4.6595547E-2,6.990605E-3,-2.769104E-3,2.1845154E-2,6.6181466E-2,-1.9588973E-2,4.9818855E-2,-0E0,2.1087555E-2,-2.7871805E-3,3.9429247E-2,6.7227236E-3,3.333684E-2,-0E0,-7.4501964E-3,1.761976E-2,3.189316E-2,-0E0,-7.352333E-4,-2.5986588E-2,4.3646898E-2,-0E0,2.1119786E-2,-2.0213258E-2],"categories":[],"categories_nodes":[],"categories_segments":[],"categories_sizes":[],"default_left":[0,0,0,0,0,0,0,0,0,0,0,0,0,0,0,0,0,0,0,0,0,0,0,0,0,0,0,0,0,0,0,0,0,0,0,0,0,0,0,0,0,0,0,0,0,0,0,0,0,0,0,0,0,0,0,0,0,0,0,0,0,0,0,0,0,0,0,0,0,0,0,0,0,0,0,0,0,0,0,0,0,0,0,0,0],"id":8,"left_children":[1,3,5,7,-1,9,-1,11,13,15,17,19,21,23,25,27,-1,29,31,33,35,37,39,41,43,45,47,-1,-1,49,51,53,55,57,59,61,63,-1,-1,65,67,69,71,73,75,-1,-1,77,-1,-1,-1,79,81,-1,-1,83,-1,-1,-1,-1,-1,-1,-1,-1,-1,-1,-1,-1,-1,-1,-1,-1,-1,-1,-1,-1,-1,-1,-1,-1,-1,-1,-1,-1,-1],"loss_changes":[1.4289001E3,3.301219E2,1.2736255E2,3.4675525E2,0E0,1.3138907E2,0E0,1.5797351E2,5.190557E1,2.4551956E1,3.6058502E1,6.3358887E1,2.5130495E1,2.2878536E1,1.3911106E1,9.439339E0,0E0,1.9135895E1,9.992897E0,2.919043E1,1.2326073E1,2.8993034E0,1.7881979E1,2.0431473E1,3.8262749E0,4.3881683E0,4.7590227E0,0E0,0E0,7.2504425E0,7.5344744E0,4.3822994E0,6.393944E0,1.0836914E1,1.7725006E1,3.1033783E0,3.8108845E0,0E0,0E0,1.8634533E1,4.5102615E0,5.238366E0,1.7425598E1,3.5995018E0,3.263524E0,0E0,0E0,3.0254202E0,0E0,0E0,0E0,2.708582E0,2.3084779E0,0E0,0E0,5.276291E0,0E0,0E0,0E0,0E0,0E0,0E0,0E0,0E0,0E0,0E0,0E0,0E0,0E0,0E0,0E0,0E0,0E0,0E0,0E0,0E0,0E0,0E0,0E0,0E0,0E0,0E0,0E0,0E0,0E0],"parents":[2147483647,0,0,1,1,2,2,3,3,5,5,7,7,8,8,9,9,10,10,11,11,12,12,13,13,14,14,15,15,17,17,18,18,19,19,20,20,21,21,22,22,23,23,24,24,25,25,26,26,29,29,30,30,31,31,32,32,33,33,34,34,35,35,36,36,39,39,40,40,41,41,42,42,43,43,44,44,47,47,51,51,52,52,55,55],"right_children":[2,4,6,8,-1,10,-1,12,14,16,18,20,22,24,26,28,-1,30,32,34,36,38,40,42,44,46,48,-1,-1,50,52,54,56,58,60,62,64,-1,-1,66,68,70,72,74,76,-1,-1,78,-1,-1,-1,80,82,-1,-1,84,-1,-1,-1,-1,-1,-1,-1,-1,-1,-1,-1,-1,-1,-1,-1,-1,-1,-1,-1,-1,-1,-1,-1,-1,-1,-1,-1,-1,-1],"split_conditions":[8.381558E-1,1E0,1.0080142E0,2E0,-3.0988539E-2,2.5E1,-3.149631E-2,9.911805E1,9.881899E1,1E0,1E0,1E0,2.7E1,1E0,9.8666664E1,1.3505396E2,-2.2721954E-2,3.2E1,4E0,4.7E1,1E0,1.03033646E2,1.03E2,9.0333336E1,5.8E1,4E0,1E0,6.695064E-2,-5.057264E-3,9.952488E1,9.4E1,5.4E1,9.7986824E1,1E0,6.8944097E-1,8E1,6.814101E1,6.976149E-2,1.2387774E-2,3E0,1.0052243E2,5E0,4E0,6.2676054E-1,8E0,1.1738005E-2,-2.7032001E-2,6.559749E-1,-1.6438557E-2,7.122023E-2,-0E0,1E0,9.287439E-1,4.4226557E-2,-2.7186784E-3,6.6E1,-2.7086172E-2,7.604113E-2,2.6278097E-2,6.1265882E-2,3.324732E-2,4.6595547E-2,6.990605E-3,-2.769104E-3,2.1845154E-2,6.6181466E-2,-1.9588973E-2,4.9818855E-2,-0E0,2.1087555E-2,-2.7871805E-3,3.9429247E-2,6.7227236E-3,3.333684E-2,-0E0,-7.4501964E-3,1.761976E-2,3.189316E-2,-0E0,-7.352333E-4,-2.5986588E-2,4.3646898E-2,-0E0,2.1119786E-2,-2.0213258E-2],"split_indices":[22,8,22,28,0,0,0,2,2,8,28,9,0,9,23,3,0,0,7,0,28,3,23,23,0,7,14,0,0,2,23,0,2,17,22,0,6,0,0,7,2,7,28,22,7,0,0,22,0,0,0,8,22,0,0,0,0,0,0,0,0,0,0,0,0,0,0,0,0,0,0,0,0,0,0,0,0,0,0,0,0,0,0,0,0],"split_type":[0,0,0,0,0,0,0,0,0,0,0,0,0,0,0,0,0,0,0,0,0,0,0,0,0,0,0,0,0,0,0,0,0,0,0,0,0,0,0,0,0,0,0,0,0,0,0,0,0,0,0,0,0,0,0,0,0,0,0,0,0,0,0,0,0,0,0,0,0,0,0,0,0,0,0,0,0,0,0,0,0,0,0,0,0],"sum_hessian":[4.4824556E3,1.9771129E3,2.5053425E3,1.7850297E3,1.9208336E2,5.025201E2,2.0028224E3,1.1441886E3,6.40841E2,8.186835E1,4.2065176E2,1.0089141E3,1.3527446E2,4.824397E2,1.5840132E2,7.390715E1,7.961193E0,9.298676E1,3.27665E2,8.435999E2,1.6531422E2,1.7015642E1,1.1825882E2,3.341124E2,1.4832732E2,1.19970436E2,3.843088E1,7.00206E1,3.8865507E0,1.8441135E1,7.454562E1,2.2605665E1,3.0505933E2,5.0102692E2,3.4257297E2,9.329064E1,7.202359E1,1.1805403E1,5.2102394E0,9.8963905E1,1.929492E1,1.0186209E2,2.322503E2,3.2270027E1,1.1605729E2,5.7763615E0,1.1419408E2,2.7874596E1,1.0556285E1,1.3908142E1,4.5329924E0,6.126537E1,1.3280255E1,4.3700643E0,1.8235601E1,2.7013374E1,2.7804596E2,4.8549295E2,1.5533971E1,2.5308821E2,8.948476E1,8.562183E1,7.668802E0,1.9070925E1,5.2952663E1,4.730736E0,9.423317E1,1.3843756E1,5.4511642E0,3.0831099E1,7.103099E1,1.7567284E2,5.6577457E1,1.27396755E1,1.9530354E1,1.0362876E2,1.2428525E1,1.6949984E1,1.0924613E1,4.876488E1,1.2500488E1,9.321908E0,3.958347E0,1.2140778E1,1.4872597E1],"tree_param":{"num_deleted":"0","num_feature":"29","num_nodes":"85","size_leaf_vector":"1"}},{"base_weights":[1.39247365E-2,3.6383855E-1,-5.8409286E-1,-2.1286266E-2,1.0736094E0,1.593039E-1,-3.0401096E-2,1.4409024E0,-2.0450786E-1,1.2430085E0,1.7958641E-1,-4.0421996E-1,5.7335235E-2,-1.9725563E-2,1.5795344E0,1.2927867E-1,-4.2458943E-1,1.3412201E0,-1.1534848E-1,1.3731638E0,-4.3900665E-2,2.2141831E-2,-2.8694013E-2,1.0613959E0,8.5570745E-2,-4.3739107E-1,4.164176E-1,-4.52943E-1,1.1536721E0,1.3905852E0,-2.803787E-2,4.3847698E-1,-4.7937605E-1,8.390086E-2,-1.5324484E-2,2.9156268E-1,-3.5850358E-1,1.2721225E0,-0E0,-5.017629E-1,2.3281214E-1,5.5836856E-1,-2.979809E-2,-5.1273763E-1,2.7691978E-1,-0E0,7.147192E-2,5.32603E-1,1.4703587E0,-1.4857724E-2,4.9293872E-2,-2.917673E-2,6.415812E-3,5.1640373E-1,-2.5721014E-2,1.661011E-2,-4.5271894E-1,1.0157407E-2,6.805565E-2,-2.7868276E-2,4.5435433E-3,-2.3286855E-2,4.483376E-2,9.40778E-4,3.9360624E-2,-2.6823351E-2,4.4131886E-2,3.0026603E-2,-7.6741423E-3,-2.8610447E-2,6.1177295E-2,7.4985504E-2,-2.38742E-2,9.284983E-3,6.455008E-2,-2.5266716E-2,2.9489342E-3],"categories":[],"categories_nodes":[],"categories_segments":[],"categories_sizes":[],"default_left":[0,0,0,0,0,0,0,0,0,0,0,0,0,0,0,0,0,0,0,0,0,0,0,0,0,0,0,0,0,0,0,0,0,0,0,0,0,0,0,0,0,0,0,0,0,0,0,0,0,0,0,0,0,0,0,0,0,0,0,0,0,0,0,0,0,0,0,0,0,0,0,0,0,0,0,0,0],"id":9,"left_children":[1,3,5,7,9,11,-1,13,15,17,19,21,-1,-1,23,25,27,29,31,33,35,-1,-1,37,-1,39,41,43,45,47,-1,49,51,-1,-1,53,55,57,-1,59,61,63,-1,65,67,-1,-1,69,71,-1,-1,-1,-1,73,-1,-1,75,-1,-1,-1,-1,-1,-1,-1,-1,-1,-1,-1,-1,-1,-1,-1,-1,-1,-1,-1,-1],"loss_changes":[9.257259E2,7.6368713E2,2.9461914E1,4.852114E2,1.4763367E2,3.014836E1,0E0,5.3143585E1,1.1864677E2,1.11003784E2,4.328136E1,5.4838862E0,0E0,0E0,7.835663E0,1.0465442E2,4.421805E1,7.427246E1,1.1959893E1,1.4792053E1,1.4571522E1,0E0,0E0,1.0447632E1,0E0,9.685272E0,6.20168E1,4.2175186E1,5.6834164E0,4.8859375E1,0E0,1.0256613E1,2.6544876E0,0E0,0E0,1.2500122E1,5.0289E0,2.2062454E0,0E0,6.8706665E0,1.0144975E1,4.599299E1,0E0,3.0111893E1,1.0595841E1,0E0,0E0,5.3319473E1,4.115088E1,0E0,0E0,0E0,0E0,1.2389388E1,0E0,0E0,2.0221252E0,0E0,0E0,0E0,0E0,0E0,0E0,0E0,0E0,0E0,0E0,0E0,0E0,0E0,0E0,0E0,0E0,0E0,0E0,0E0,0E0],"parents":[2147483647,0,0,1,1,2,2,3,3,4,4,5,5,7,7,8,8,9,9,10,10,11,11,14,14,15,15,16,16,17,17,18,18,19,19,20,20,23,23,25,25,26,26,27,27,28,28,29,29,31,31,32,32,35,35,36,36,37,37,39,39,40,40,41,41,43,43,44,44,47,47,48,48,53,53,56,56],"right_children":[2,4,6,8,10,12,-1,14,16,18,20,22,-1,-1,24,26,28,30,32,34,36,-1,-1,38,-1,40,42,44,46,48,-1,50,52,-1,-1,54,56,58,-1,60,62,64,-1,66,68,-1,-1,70,72,-1,-1,-1,-1,74,-1,-1,76,-1,-1,-1,-1,-1,-1,-1,-1,-1,-1,-1,-1,-1,-1,-1,-1,-1,-1,-1,-1],"split_conditions":[8E0,9.881899E1,2.4E1,9E0,4E0,1.12524315E2,-3.0401096E-2,9.5885506E1,9E1,1.0188852E2,4.5E1,7.7333336E1,5.7335235E-2,-1.9725563E-2,1.10391464E2,8.0258156E1,1E0,8.1E1,1.06333336E2,2.3656607E1,1.0447023E2,2.2141831E-2,-2.8694013E-2,8.269258E1,8.5570745E-2,2.0082956E1,1E0,1.1863177E2,8.2E1,4E0,-2.803787E-2,8.84713E1,1.2571166E2,8.390086E-2,-1.5324484E-2,1E0,6E0,1.8151241E1,-0E0,9.8657524E1,7.4209175E1,9.8E1,-2.979809E-2,1E0,5.7E1,-0E0,7.147192E-2,9.946234E1,1E0,-1.4857724E-2,4.9293872E-2,-2.917673E-2,6.415812E-3,1E0,-2.5721014E-2,1.661011E-2,8.594167E1,1.0157407E-2,6.805565E-2,-2.7868276E-2,4.5435433E-3,-2.3286855E-2,4.483376E-2,9.40778E-4,3.9360624E-2,-2.6823351E-2,4.4131886E-2,3.0026603E-2,-7.6741423E-3,-2.8610447E-2,6.1177295E-2,7.4985504E-2,-2.38742E-2,9.284983E-3,6.455008E-2,-2.5266716E-2,2.9489342E-3],"split_indices":[7,2,0,0,28,3,0,3,23,23,0,23,0,0,3,3,16,0,23,4,3,0,0,23,0,4,8,3,3,7,0,6,3,0,0,8,7,4,0,2,3,2,0,18,0,0,0,3,8,0,0,0,0,21,0,0,6,0,0,0,0,0,0,0,0,0,0,0,0,0,0,0,0,0,0,0,0],"split_type":[0,0,0,0,0,0,0,0,0,0,0,0,0,0,0,0,0,0,0,0,0,0,0,0,0,0,0,0,0,0,0,0,0,0,0,0,0,0,0,0,0,0,0,0,0,0,0,0,0,0,0,0,0,0,0,0,0,0,0,0,0,0,0,0,0,0,0,0,0,0,0,0,0,0,0,0,0],"sum_hessian":[4.420416E3,2.789711E3,1.6307048E3,1.8092432E3,9.804679E2,4.98491E1,1.5808557E3,1.9963231E2,1.6096108E3,8.2315656E2,1.5731133E2,3.216623E1,1.7682869E1,1.3507131E1,1.8612518E2,6.390101E2,9.706008E2,7.6802057E2,5.5135967E1,2.3539995E1,1.3377132E2,4.338455E0,2.7827776E1,4.220312E1,1.4392206E2,2.139638E2,4.2504623E2,9.551837E2,1.5417123E1,7.4937164E2,1.8648973E1,2.1160374E1,3.3975594E1,2.0177462E1,3.3625336E0,6.404105E1,6.973027E1,3.522753E1,6.9755883E0,1.9635312E2,1.7610678E1,3.7399698E2,5.1049248E1,8.8403815E2,7.114556E1,3.2904747E0,1.2126648E1,6.558727E1,6.8378436E2,9.028372E0,1.2132001E1,2.9774527E1,4.201068E0,5.111945E1,1.2921605E1,7.1264324E0,6.2603836E1,3.6436257E0,3.1583906E1,1.8039104E2,1.5962087E1,8.50501E0,9.105667E0,1.1267906E2,2.6131793E2,8.708186E2,1.321951E1,4.0822773E1,3.032279E1,2.5089466E1,4.049781E1,6.743398E2,9.444568E0,3.80146E1,1.3104852E1,5.767537E1,4.928466E0],"tree_param":{"num_deleted":"0","num_feature":"29","num_nodes":"77","size_leaf_vector":"1"}},{"base_weights":[8.8586025E-3,2.1379396E-1,-5.2224237E-1,-1.8455677E-1,5.6192386E-1,-6.1278594E-1,-2.329366E-1,-2.4139743E-1,1.02014944E-1,1.8120891E-1,7.723943E-1,2.0295183E-1,-3.124868E-2,-5.928636E-1,4.8538747E-1,-1.3348699E-1,-4.2462918E-1,-1.049062E-1,4.7125605E-1,-1.6773669E-2,4.2639294E-1,8.9610595E-1,-4.8138046E-1,-2.32833E-2,6.493383E-2,-3.126242E-2,-0E0,-2.8511027E-2,8.524661E-1,-1.6039762E-1,3.1220526E-1,-4.5519543E-1,-0E0,-2.0582753E-1,4.074547E-1,-2.6739765E-2,7.1336645E-1,6.931374E-1,-1.2053832E-1,2.9651988E-1,8.4667146E-1,6.772089E-1,1.2416289E0,-2.8905973E-2,5.7719786E-2,1.2838738E0,-2.7430749E-2,-7.912137E-2,-2.820352E-1,-1.3068024E-3,3.9335012E-2,-2.3848353E-2,9.4554424E-2,-2.0402668E-2,6.2348884E-1,1.3376887E-1,-3.352923E-1,8.975179E-1,-1.16215795E-2,-8.1039794E-2,1.0625631E0,4.3694827E-1,5.7830174E-2,3.0883566E-1,-2.000342E-1,5.3246953E-2,4.8620388E-1,8.822979E-3,5.1977392E-2,5.493019E-1,1.3468362E0,-2.9508922E-1,1.3416078E0,-2.3868326E-2,1.6152798E0,-9.776462E-3,1.7145332E-3,-1.9993823E-2,-5.9442692E-3,-1.475737E-2,2.8733686E-2,5.8145788E-2,-1.7280115E-2,-1.7739544E-2,1.783184E-2,-2.3080384E-2,-2.8836175E-3,7.302242E-3,6.039213E-2,2.3137331E-2,-2.6124274E-2,7.3943916E-3,6.239252E-2,5.092589E-2,1.0842546E-2,-7.5029745E-3,4.498443E-2,9.476599E-6,-1.7308366E-2,-2.7412376E-3,2.5863145E-2,3.1255085E-2,7.610535E-3,2.098083E-2,5.8859505E-2,5.2054226E-2,8.8064484E-2,1.0949428E-2,-2.674587E-2,-1.9274836E-2,6.836407E-2,9.076722E-2,-1.7127374E-2],"categories":[],"categories_nodes":[],"categories_segments":[],"categories_sizes":[],"default_left":[0,0,0,0,0,0,0,0,0,0,0,0,0,0,0,0,0,0,0,0,0,0,0,0,0,0,0,0,0,0,0,0,0,0,0,0,0,0,0,0,0,0,0,0,0,0,0,0,0,0,0,0,0,0,0,0,0,0,0,0,0,0,0,0,0,0,0,0,0,0,0,0,0,0,0,0,0,0,0,0,0,0,0,0,0,0,0,0,0,0,0,0,0,0,0,0,0,0,0,0,0,0,0,0,0,0,0,0,0,0,0,0,0],"id":10,"left_children":[1,3,5,7,9,11,13,15,17,19,21,23,-1,25,27,29,31,33,35,37,39,41,43,-1,-1,-1,-1,-1,45,47,49,51,53,55,57,-1,59,61,63,65,67,69,71,-1,-1,73,-1,75,77,-1,-1,-1,79,-1,81,83,85,87,-1,89,91,93,-1,95,97,99,101,-1,-1,103,105,107,109,-1,111,-1,-1,-1,-1,-1,-1,-1,-1,-1,-1,-1,-1,-1,-1,-1,-1,-1,-1,-1,-1,-1,-1,-1,-1,-1,-1,-1,-1,-1,-1,-1,-1,-1,-1,-1,-1,-1,-1],"loss_changes":[4.7743726E2,4.395655E2,3.1277405E1,2.4189495E1,1.3475049E2,9.685516E0,7.705665E1,2.4030441E1,1.8965744E1,2.961224E1,1.6976251E2,1.2292098E1,0E0,3.6525497E0,3.9595554E1,9.403502E0,5.698265E0,8.210119E0,2.2543888E1,2.4617167E1,1.3757324E1,7.231036E1,1.6651676E1,0E0,0E0,0E0,0E0,0E0,4.7012566E1,7.0891876E0,7.50917E0,5.351494E0,8.952214E0,6.0692396E0,8.831285E0,0E0,2.0924042E1,3.239317E0,1.0148639E1,9.440901E0,7.0599785E0,4.9984497E1,5.9858032E1,0E0,0E0,3.6019073E1,0E0,6.0184975E0,5.280651E0,0E0,0E0,0E0,3.6468525E0,0E0,8.336014E0,4.3120427E0,3.139287E0,2.5727768E0,0E0,6.208204E0,7.6298065E0,2.9448533E0,0E0,1.3099607E1,7.5277796E0,5.1064463E0,4.8706684E0,0E0,0E0,4.0376892E1,7.113922E0,3.426437E0,1.7438232E1,0E0,2.140332E1,0E0,0E0,0E0,0E0,0E0,0E0,0E0,0E0,0E0,0E0,0E0,0E0,0E0,0E0,0E0,0E0,0E0,0E0,0E0,0E0,0E0,0E0,0E0,0E0,0E0,0E0,0E0,0E0,0E0,0E0,0E0,0E0,0E0,0E0,0E0,0E0,0E0,0E0],"parents":[2147483647,0,0,1,1,2,2,3,3,4,4,5,5,6,6,7,7,8,8,9,9,10,10,11,11,13,13,14,14,15,15,16,16,17,17,18,18,19,19,20,20,21,21,22,22,28,28,29,29,30,30,31,31,32,32,33,33,34,34,36,36,37,37,38,38,39,39,40,40,41,41,42,42,45,45,47,47,48,48,52,52,54,54,55,55,56,56,57,57,59,59,60,60,61,61,63,63,64,64,65,65,66,66,69,69,70,70,71,71,72,72,74,74],"right_children":[2,4,6,8,10,12,14,16,18,20,22,24,-1,26,28,30,32,34,36,38,40,42,44,-1,-1,-1,-1,-1,46,48,50,52,54,56,58,-1,60,62,64,66,68,70,72,-1,-1,74,-1,76,78,-1,-1,-1,80,-1,82,84,86,88,-1,90,92,94,-1,96,98,100,102,-1,-1,104,106,108,110,-1,112,-1,-1,-1,-1,-1,-1,-1,-1,-1,-1,-1,-1,-1,-1,-1,-1,-1,-1,-1,-1,-1,-1,-1,-1,-1,-1,-1,-1,-1,-1,-1,-1,-1,-1,-1,-1,-1,-1],"split_conditions":[1E0,4.9E1,6.8666664E1,4.3E1,2E0,8E0,8.6077064E-1,1.0080142E0,3E0,1.31E2,1.7450733E0,3E1,-3.124868E-2,5E0,6E0,1E1,4E1,8E0,5.904845E1,6.031839E1,7.6E1,4E0,6.572798E1,-2.32833E-2,6.493383E-2,-3.126242E-2,-0E0,-2.8511027E-2,1E1,9.841005E1,1E0,4.4E1,2.3409016E1,9.7986824E1,8.2013054E1,-2.6739765E-2,6E0,1E0,9.7761444E1,1E0,5E0,8.1E1,4.360068E1,-2.8905973E-2,5.7719786E-2,3.1E1,-2.7430749E-2,8.7E1,1.24E2,-1.3068024E-3,3.9335012E-2,-2.3848353E-2,1.0108097E2,-2.0402668E-2,1.450456E2,1.7091103E1,9.6666664E1,9.345779E1,-1.16215795E-2,8.333333E-1,8.6077064E-1,4E0,5.7830174E-2,8.7E1,7.334199E1,6.955798E-1,6.7E1,8.822979E-3,5.1977392E-2,8E0,2.0082956E1,1.0011034E2,9.55E1,-2.3868326E-2,3.4301846E1,-9.776462E-3,1.7145332E-3,-1.9993823E-2,-5.9442692E-3,-1.475737E-2,2.8733686E-2,5.8145788E-2,-1.7280115E-2,-1.7739544E-2,1.783184E-2,-2.3080384E-2,-2.8836175E-3,7.302242E-3,6.039213E-2,2.3137331E-2,-2.6124274E-2,7.3943916E-3,6.239252E-2,5.092589E-2,1.0842546E-2,-7.5029745E-3,4.498443E-2,9.476599E-6,-1.7308366E-2,-2.7412376E-3,2.5863145E-2,3.1255085E-2,7.610535E-3,2.098083E-2,5.8859505E-2,5.2054226E-2,8.8064484E-2,1.0949428E-2,-2.674587E-2,-1.9274836E-2,6.836407E-2,9.076722E-2,-1.7127374E-2],"split_indices":[8,0,23,0,28,7,22,22,28,5,22,0,0,28,7,7,0,7,23,6,0,28,6,0,0,0,0,0,7,2,28,4,4,2,6,0,7,19,2,28,7,0,6,0,0,0,0,3,5,0,0,0,5,0,3,4,23,3,0,22,22,7,0,3,6,22,0,0,0,7,4,3,2,0,4,0,0,0,0,0,0,0,0,0,0,0,0,0,0,0,0,0,0,0,0,0,0,0,0,0,0,0,0,0,0,0,0,0,0,0,0,0,0],"split_type":[0,0,0,0,0,0,0,0,0,0,0,0,0,0,0,0,0,0,0,0,0,0,0,0,0,0,0,0,0,0,0,0,0,0,0,0,0,0,0,0,0,0,0,0,0,0,0,0,0,0,0,0,0,0,0,0,0,0,0,0,0,0,0,0,0,0,0,0,0,0,0,0,0,0,0,0,0,0,0,0,0,0,0,0,0,0,0,0,0,0,0,0,0,0,0,0,0,0,0,0,0,0,0,0,0,0,0,0,0,0,0,0,0],"sum_hessian":[4.383907E3,3.164833E3,1.2190742E3,1.475725E3,1.6891079E3,9.254677E2,2.9360654E2,1.2331862E3,2.4253883E2,6.035174E2,1.0855906E3,1.2558813E1,9.1290894E2,1.9629526E2,9.7311295E1,7.800048E2,4.5318137E2,1.5548395E2,8.70549E1,3.3380142E2,2.6971594E2,9.8897626E2,9.661427E1,8.230329E0,4.3284845E0,1.856289E2,1.0666357E1,2.4471031E1,7.2840256E1,7.378556E2,4.214919E1,4.216041E2,3.1577274E1,1.3171254E2,2.3771404E1,1.6016779E1,7.1038124E1,4.050513E1,2.932963E2,2.0955937E2,6.015658E1,6.099349E2,3.790414E2,9.272914E1,3.8851352E0,5.6092854E1,1.6747406E1,4.4675363E2,2.9110196E2,2.5092749E1,1.705644E1,4.06673E2,1.4931083E1,1.9950315E1,1.1626959E1,3.526944E1,9.64431E1,1.3448152E1,1.0323252E1,2.1723083E1,4.9315037E1,2.928289E1,1.1222242E1,4.3934944E1,2.4936134E2,9.408771E1,1.15471664E2,1.4878496E1,4.5278084E1,5.157984E2,9.413649E1,2.2610128E1,3.5643127E2,8.504824E0,4.758803E1,2.2192598E2,2.2482765E2,1.6555608E2,1.255459E2,8.09206E0,6.839023E0,7.5437837E0,4.083175E0,9.975126E0,2.5294313E1,6.413539E1,3.2307705E1,5.2609196E0,8.187232E0,9.182568E0,1.2540517E1,9.367416E0,3.994762E1,5.424006E0,2.3858883E1,2.509238E1,1.8842564E1,1.046084E2,1.4475296E2,7.687035E1,1.7217356E1,7.926675E1,3.6204914E1,4.309268E2,8.487159E1,5.8908596E1,3.5227898E1,6.5846744E0,1.6025455E1,4.524922E0,3.5190634E2,4.353977E1,4.0482616E0],"tree_param":{"num_deleted":"0","num_feature":"29","num_nodes":"113","size_leaf_vector":"1"}},{"base_weights":[-1.5712777E-2,-5.621522E-1,1.2420721E0,6.08458E-1,-6.9083905E-1,6.515909E-2,1.028396E0,-6.080854E-1,1.1285564E0,3.316979E-1,-6.94134E-1,1.2781687E0,3.6089095E-1,2.6076717E-2,-3.5437774E-2,4.0011087E-1,1.25048E0,-2.1692364E-2,4.9293883E-2,-7.0050824E-1,-3.2023025E-1,6.544768E-2,6.4574486E-1,-5.104208E-2,5.616684E-2,-3.0691354E-2,9.055642E-1,6.375152E-2,4.5986503E-1,-3.534253E-2,-5.053932E-1,-3.428426E-2,8.242699E-1,5.53285E-2,-2.1753436E-2,5.924007E-2,-4.8260558E-1,-2.1267606E-2,5.9509624E-2,4.8224315E-2,-1.818188E-2,-3.523983E-2,2.0997217E-1,-1.7061338E-2,5.9475113E-2,-3.4649063E-2,4.7400255E-2,4.7316164E-2,-2.9554477E-2],"categories":[],"categories_nodes":[],"categories_segments":[],"categories_sizes":[],"default_left":[0,0,0,0,0,0,0,0,0,0,0,0,0,0,0,0,0,0,0,0,0,0,0,0,0,0,0,0,0,0,0,0,0,0,0,0,0,0,0,0,0,0,0,0,0,0,0,0,0],"id":11,"left_children":[1,3,5,7,9,-1,11,13,15,17,19,21,23,-1,-1,25,27,-1,-1,29,31,-1,33,35,-1,-1,37,-1,39,-1,41,-1,43,-1,-1,-1,45,-1,-1,-1,-1,-1,47,-1,-1,-1,-1,-1,-1],"loss_changes":[3.8203518E3,5.8470654E2,1.8134521E1,2.4493271E2,1.2410522E1,0E0,6.2557983E1,1.40439E1,2.2185669E1,7.183883E0,7.342163E0,2.7702332E0,3.4680405E1,0E0,0E0,2.2932138E1,2.4253845E0,0E0,0E0,2.9135742E0,2.757095E1,0E0,1.0097797E1,3.91029E1,0E0,0E0,1.2516907E1,0E0,5.4360743E0,0E0,1.7264177E1,0E0,8.011488E0,0E0,0E0,0E0,1.7727486E1,0E0,0E0,0E0,0E0,0E0,1.6954784E1,0E0,0E0,0E0,0E0,0E0,0E0],"parents":[2147483647,0,0,1,1,2,2,3,3,4,4,6,6,7,7,8,8,9,9,10,10,11,11,12,12,15,15,16,16,19,19,20,20,22,22,23,23,26,26,28,28,30,30,32,32,36,36,42,42],"right_children":[2,4,6,8,10,-1,12,14,16,18,20,22,24,-1,-1,26,28,-1,-1,30,32,-1,34,36,-1,-1,38,-1,40,-1,42,-1,44,-1,-1,-1,46,-1,-1,-1,-1,-1,48,-1,-1,-1,-1,-1,-1],"split_conditions":[1E0,6.791941E1,6.8666664E1,8E0,9.55E1,6.515909E-2,8.6077064E-1,1.5253263E1,1.3697641E0,9.071437E1,3.5113506E1,5E0,1.4538903E0,2.6076717E-2,-3.5437774E-2,2.5799404E1,6.6666664E1,-2.1692364E-2,4.9293883E-2,1.8E2,8E1,6.544768E-2,8.4788895E1,6E0,5.616684E-2,-3.0691354E-2,1E0,6.375152E-2,7.170542E1,-3.534253E-2,5.4545456E-1,-3.428426E-2,9.8657524E1,5.53285E-2,-2.1753436E-2,5.924007E-2,1E1,-2.1267606E-2,5.9509624E-2,4.8224315E-2,-1.818188E-2,-3.523983E-2,1.0254438E2,-1.7061338E-2,5.9475113E-2,-3.4649063E-2,4.7400255E-2,4.7316164E-2,-2.9554477E-2],"split_indices":[8,23,23,7,2,0,22,4,22,3,4,28,22,0,0,4,23,0,0,5,0,0,3,7,0,0,9,0,5,0,22,0,2,0,0,0,7,0,0,0,0,0,3,0,0,0,0,0,0],"split_type":[0,0,0,0,0,0,0,0,0,0,0,0,0,0,0,0,0,0,0,0,0,0,0,0,0,0,0,0,0,0,0,0,0,0,0,0,0,0,0,0,0,0,0,0,0,0,0,0,0],"sum_hessian":[5.554929E3,3.8735745E3,1.6813547E3,3.8252878E2,3.4910457E3,1.2976884E3,3.8366638E2,1.1417245E2,2.6835632E2,1.0085419E1,3.4809602E3,2.7731833E2,1.0634804E2,8.251734E0,1.05920715E2,4.029195E1,2.2806436E2,4.605358E0,5.4800606E0,3.4195793E3,6.138082E1,2.6165164E2,1.5666686E1,6.983047E1,3.651757E1,1.2932121E1,2.7359829E1,2.1939386E2,8.6705065E0,3.3043608E3,1.15218575E2,4.7463657E1,1.3917164E1,1.1274531E1,4.3921547E0,1.687039E1,5.296008E1,4.3365765E0,2.3023252E1,5.5403094E0,3.1301973E0,9.067266E1,2.4545916E1,3.0253623E0,1.0891802E1,4.737426E1,5.5858197E0,1.2925786E1,1.1620129E1],"tree_param":{"num_deleted":"0","num_feature":"29","num_nodes":"49","size_leaf_vector":"1"}},{"base_weights":[-7.809925E-3,5.8787096E-1,-5.0897855E-1,7.10669E-1,-3.0680422E-2,-7.11749E-2,-3.1218458E-2,1.2105961E0,3.8049236E-1,1.0263745E0,-2.911331E-1,1.287699E0,3.7063497E-1,5.4287714E-1,-3.7529635E-1,1.1937908E0,-2.2352165E-2,1.8916476E-1,-4.3796065E-1,1.3650006E0,8.239221E-1,5.9973646E-2,3.84845E-2,6.6879165E-1,-1.4982125E-1,7.340548E-1,-4.41008E-1,6.47072E-2,2.3296733E-1,4.000204E-1,-2.9866266E-1,2.4101524E-1,-4.881166E-1,1.3782295E0,1.8605573E-2,9.677098E-1,-0E0,-1.9198504E-1,7.7445704E-1,1.010342E0,3.9867136E-1,-2.3046473E-1,4.6924323E-1,5.076422E-2,-0E0,-5.107253E-1,1.4573012E-1,3.165487E-2,-1.5260716E-2,5.3610855E-1,-2.331241E-2,-2.0706741E-2,1.5126913E-2,2.9104779E-2,-1.3445226E-3,5.188241E-3,-5.242251E-1,6.9639795E-2,3.6161244E-2,5.1945504E-2,-0E0,3.657831E-2,-1.8623179E-2,-3.6611983E-3,5.566528E-2,5.558412E-2,1.1278219E-2,2.8817669E-2,8.5172424E-4,3.7879616E-2,-1.3657463E-2,3.7001908E-2,-1.6129268E-3,2.1273496E-2,-2.6795108E-2,2.5924323E-2,-1.4725185E-2,3.7019838E-2,-6.2642656E-3,-1.6223732E-2,-2.8890833E-2],"categories":[],"categories_nodes":[],"categories_segments":[],"categories_sizes":[],"default_left":[0,0,0,0,0,0,0,0,0,0,0,0,0,0,0,0,0,0,0,0,0,0,0,0,0,0,0,0,0,0,0,0,0,0,0,0,0,0,0,0,0,0,0,0,0,0,0,0,0,0,0,0,0,0,0,0,0,0,0,0,0,0,0,0,0,0,0,0,0,0,0,0,0,0,0,0,0,0,0,0,0],"id":12,"left_children":[1,3,5,7,-1,9,-1,11,13,15,17,19,21,23,25,27,-1,29,31,33,35,-1,37,39,41,43,45,-1,47,49,51,53,55,57,-1,59,-1,61,63,65,67,69,71,-1,-1,73,75,-1,-1,77,-1,-1,-1,-1,-1,-1,79,-1,-1,-1,-1,-1,-1,-1,-1,-1,-1,-1,-1,-1,-1,-1,-1,-1,-1,-1,-1,-1,-1,-1,-1],"loss_changes":[1.3250358E3,3.0007312E2,1.2136102E2,3.0214978E2,0E0,1.2240076E2,0E0,4.5539307E1,1.3698924E2,2.229689E1,3.015654E1,2.060144E1,1.7124807E1,8.0428955E1,1.4886221E1,6.0359955E0,0E0,1.0550572E1,1.1452362E1,5.5667725E0,1.2488487E1,0E0,8.857489E0,7.015799E1,7.188493E0,2.2934089E0,8.02066E0,0E0,2.7405334E0,8.930983E0,2.426154E0,2.4162047E0,6.8309402E0,2.2685547E0,0E0,6.229126E0,0E0,6.73423E0,4.285046E0,2.5943573E1,2.9376488E1,5.558776E0,2.6173828E0,0E0,0E0,4.4997787E0,3.8237526E0,0E0,0E0,9.002661E0,0E0,0E0,0E0,0E0,0E0,0E0,2.260147E0,0E0,0E0,0E0,0E0,0E0,0E0,0E0,0E0,0E0,0E0,0E0,0E0,0E0,0E0,0E0,0E0,0E0,0E0,0E0,0E0,0E0,0E0,0E0,0E0],"parents":[2147483647,0,0,1,1,2,2,3,3,5,5,7,7,8,8,9,9,10,10,11,11,12,12,13,13,14,14,15,15,17,17,18,18,19,19,20,20,22,22,23,23,24,24,25,25,26,26,28,28,29,29,30,30,31,31,32,32,33,33,35,35,37,37,38,38,39,39,40,40,41,41,42,42,45,45,46,46,49,49,56,56],"right_children":[2,4,6,8,-1,10,-1,12,14,16,18,20,22,24,26,28,-1,30,32,34,36,-1,38,40,42,44,46,-1,48,50,52,54,56,58,-1,60,-1,62,64,66,68,70,72,-1,-1,74,76,-1,-1,78,-1,-1,-1,-1,-1,-1,80,-1,-1,-1,-1,-1,-1,-1,-1,-1,-1,-1,-1,-1,-1,-1,-1,-1,-1,-1,-1,-1,-1,-1,-1],"split_conditions":[8.381558E-1,1E0,1.0080142E0,1E0,-3.0680422E-2,2.5E1,-3.1218458E-2,9.911805E1,9.911805E1,1E0,1E0,1E0,2.9E1,2.0082956E1,4E0,1E0,-2.2352165E-2,5.8E1,9.7761444E1,8.333333E-1,7.6E1,5.9973646E-2,1.36E2,5.8E1,9.6E1,1E0,1.47E2,6.47072E-2,6E0,1E0,1.1E2,5.9E1,4E0,2.2072783E1,1.8605573E-2,2.3135775E1,-0E0,4E0,7.435481E1,7.860164E-1,1E0,1.7E1,1E0,5.076422E-2,-0E0,2.4E1,2.0082956E1,3.165487E-2,-1.5260716E-2,9.941652E1,-2.331241E-2,-2.0706741E-2,1.5126913E-2,2.9104779E-2,-1.3445226E-3,5.188241E-3,9.841005E1,6.9639795E-2,3.6161244E-2,5.1945504E-2,-0E0,3.657831E-2,-1.8623179E-2,-3.6611983E-3,5.566528E-2,5.558412E-2,1.1278219E-2,2.8817669E-2,8.5172424E-4,3.7879616E-2,-1.3657463E-2,3.7001908E-2,-1.6129268E-3,2.1273496E-2,-2.6795108E-2,2.5924323E-2,-1.4725185E-2,3.7019838E-2,-6.2642656E-3,-1.6223732E-2,-2.8890833E-2],"split_indices":[22,8,22,28,0,0,0,2,2,8,28,9,0,4,7,22,0,0,2,22,0,0,5,0,6,9,5,0,7,8,3,0,7,4,0,4,0,7,6,22,9,0,9,0,0,0,4,0,0,2,0,0,0,0,0,0,2,0,0,0,0,0,0,0,0,0,0,0,0,0,0,0,0,0,0,0,0,0,0,0,0],"split_type":[0,0,0,0,0,0,0,0,0,0,0,0,0,0,0,0,0,0,0,0,0,0,0,0,0,0,0,0,0,0,0,0,0,0,0,0,0,0,0,0,0,0,0,0,0,0,0,0,0,0,0,0,0,0,0,0,0,0,0,0,0,0,0,0,0,0,0,0,0,0,0,0,0,0,0,0,0,0,0,0,0],"sum_hessian":[4.434565E3,2.0256119E3,2.4089534E3,1.838899E3,1.8671278E2,5.040612E2,1.9048921E3,7.28705E2,1.1101941E3,8.254948E1,4.2151172E2,6.659169E2,6.2788143E1,9.148576E2,1.9533649E2,7.4772415E1,7.7770634E0,9.775534E1,3.2375638E2,5.665248E2,9.939209E1,1.603846E1,4.6749683E1,7.748084E2,1.400492E2,9.360518E0,1.8597597E2,6.660196E1,8.17045E0,6.9220726E1,2.8534613E1,2.1061474E1,3.0269492E2,5.5781287E2,8.711871E0,8.48356E1,1.4556487E1,3.6209576E1,1.0540108E1,3.3892593E2,4.358825E2,1.2573343E2,1.43157625E1,6.1634164E0,3.197102E0,1.6721808E2,1.875789E1,5.016835E0,3.1536148E0,6.0980343E1,8.240381E0,2.5156754E1,3.3778586E0,9.054574E0,1.20069E1,1.6392857E1,2.8630206E2,5.4272723E2,1.5085667E1,7.911241E1,5.7231865E0,4.4680643E0,3.1741512E1,3.036376E0,7.5037317E0,2.988628E2,4.006314E1,2.9582303E2,1.4005948E2,3.3345478E0,1.2239888E2,9.32583E0,4.9899325E0,3.026338E0,1.6419174E2,1.0579897E1,8.177993E0,4.6984943E1,1.3995402E1,6.5522095E1,2.2077995E2],"tree_param":{"num_deleted":"0","num_feature":"29","num_nodes":"81","size_leaf_vector":"1"}},{"base_weights":[-1.02484105E-2,3.035887E-1,-5.7018733E-1,-2.882184E-1,8.530186E-1,-2.9942867E-1,-3.0884976E-2,-4.7926214E-1,9.9133974E-1,9.517049E-1,-3.0299528E-2,-3.0460197E-2,9.0689164E-1,-5.105824E-1,1.0867484E0,1.2260883E0,-2.8093932E-2,1.0612035E0,1.254481E-1,7.165901E-2,-1.4089323E-2,-5.646607E-1,-1.09304726E-1,-1.6771214E-2,7.116901E-2,-2.4260823E-2,1.3536924E0,7.082712E-1,1.3774682E0,5.015917E-1,-4.5660895E-1,-2.977227E-2,-3.408809E-1,-5.04173E-1,3.561029E-1,1.4033666E0,-1.6392488E-2,1.375453E-1,1.2734697E0,1.5051991E0,7.0752686E-1,6.015979E-2,9.869665E-1,-5.4900862E-2,-2.8108148E-2,3.3099155E-3,-2.7172578E-2,-3.0250622E-2,1.4202828E-2,-2.6374822E-2,3.1061474E-2,-1.5068473E-2,7.2500505E-2,-5.2920934E-3,5.049282E-2,-2.6802495E-2,6.847664E-2,7.945411E-2,5.4733217E-2,4.314388E-2,-1.393971E-2,3.9116662E-2,-1.619134E-2,5.9186704E-2,-8.986347E-3,4.0276695E-2,-2.5343372E-2],"categories":[],"categories_nodes":[],"categories_segments":[],"categories_sizes":[],"default_left":[0,0,0,0,0,0,0,0,0,0,0,0,0,0,0,0,0,0,0,0,0,0,0,0,0,0,0,0,0,0,0,0,0,0,0,0,0,0,0,0,0,0,0,0,0,0,0,0,0,0,0,0,0,0,0,0,0,0,0,0,0,0,0,0,0,0,0],"id":13,"left_children":[1,3,5,7,9,11,-1,13,15,17,-1,-1,19,21,23,25,-1,27,29,-1,-1,31,33,-1,-1,-1,35,37,39,41,43,-1,45,47,49,51,-1,53,55,57,59,61,63,65,-1,-1,-1,-1,-1,-1,-1,-1,-1,-1,-1,-1,-1,-1,-1,-1,-1,-1,-1,-1,-1,-1,-1],"loss_changes":[7.806538E2,9.2609326E2,1.9701233E1,3.3586273E2,2.139425E2,9.2019E1,0E0,5.9417755E1,6.6768295E1,1.2437512E2,0E0,0E0,3.282856E1,2.4992493E1,1.2869741E1,3.579416E1,0E0,1.3334216E2,3.655638E1,0E0,0E0,6.2356873E0,2.6689945E1,0E0,0E0,0E0,1.3644226E1,1.8671936E2,5.1642212E1,2.1119732E1,2.3947172E0,0E0,1.1150137E1,6.7599735E0,1.6203823E1,1.2769104E1,0E0,6.272892E1,5.260675E1,1.3644897E1,1.7182743E1,1.6226564E1,1.1879486E1,7.18936E0,0E0,0E0,0E0,0E0,0E0,0E0,0E0,0E0,0E0,0E0,0E0,0E0,0E0,0E0,0E0,0E0,0E0,0E0,0E0,0E0,0E0,0E0,0E0],"parents":[2147483647,0,0,1,1,2,2,3,3,4,4,5,5,7,7,8,8,9,9,12,12,13,13,14,14,15,15,17,17,18,18,21,21,22,22,26,26,27,27,28,28,29,29,30,30,32,32,33,33,34,34,35,35,37,37,38,38,39,39,40,40,41,41,42,42,43,43],"right_children":[2,4,6,8,10,12,-1,14,16,18,-1,-1,20,22,24,26,-1,28,30,-1,-1,32,34,-1,-1,-1,36,38,40,42,44,-1,46,48,50,52,-1,54,56,58,60,62,64,66,-1,-1,-1,-1,-1,-1,-1,-1,-1,-1,-1,-1,-1,-1,-1,-1,-1,-1,-1,-1,-1,-1,-1],"split_conditions":[8E0,7.8125E-1,2E0,9.911805E1,1E0,1.0080142E0,-3.0884976E-2,1E0,1.46E2,4E0,-3.0299528E-2,-3.0460197E-2,1.3114754E0,6E0,4E0,4E0,-2.8093932E-2,1.0080142E0,1E0,7.165901E-2,-1.4089323E-2,9.8657524E1,6.48855E-1,-1.6771214E-2,7.116901E-2,-2.4260823E-2,1.0156331E2,9.881899E1,1E0,7.435481E1,1E0,-2.977227E-2,8.912236E1,9.871378E1,9.7986824E1,5.4801613E-1,-1.6392488E-2,6E0,4E0,2E0,1E0,6E0,1.22E2,1E0,-2.8108148E-2,3.3099155E-3,-2.7172578E-2,-3.0250622E-2,1.4202828E-2,-2.6374822E-2,3.1061474E-2,-1.5068473E-2,7.2500505E-2,-5.2920934E-3,5.049282E-2,-2.6802495E-2,6.847664E-2,7.945411E-2,5.4733217E-2,4.314388E-2,-1.393971E-2,3.9116662E-2,-1.619134E-2,5.9186704E-2,-8.986347E-3,4.0276695E-2,-2.5343372E-2],"split_indices":[7,22,28,2,8,22,0,16,5,28,0,0,22,7,7,7,0,22,9,0,0,2,22,0,0,0,2,2,9,6,24,0,23,2,2,22,0,7,7,28,17,7,5,19,0,0,0,0,0,0,0,0,0,0,0,0,0,0,0,0,0,0,0,0,0,0,0],"split_type":[0,0,0,0,0,0,0,0,0,0,0,0,0,0,0,0,0,0,0,0,0,0,0,0,0,0,0,0,0,0,0,0,0,0,0,0,0,0,0,0,0,0,0,0,0,0,0,0,0,0,0,0,0,0,0,0,0,0,0,0,0,0,0,0,0,0,0],"sum_hessian":[4.4376294E3,2.8437654E3,1.5938639E3,1.369104E3,1.4746615E3,2.4168678E2,1.3521771E3,1.1926741E3,1.764299E2,1.382208E3,9.2453476E1,1.9342178E2,4.8265E1,1.1709229E3,2.175126E1,1.5391136E2,2.2518541E1,1.2194308E3,1.6277719E2,3.345986E1,1.48051405E1,1.0300477E3,1.4087514E2,3.8802407E0,1.787102E1,1.0019253E1,1.438921E2,5.801163E2,6.393145E2,9.9568436E1,6.3208748E1,9.0059906E2,1.2944868E2,7.670427E1,6.417087E1,1.4037355E2,3.518556E0,2.9032416E2,2.8979208E2,5.342204E2,1.0509415E2,5.3861374E1,4.570706E1,1.47711525E1,4.8437595E1,4.2639633E1,8.680905E1,6.8978905E1,7.72536E0,1.3918606E1,5.0252262E1,3.1621137E0,1.3721144E2,2.279164E2,6.240777E1,1.3884664E1,2.759074E2,4.378057E2,9.6414696E1,9.1447876E1,1.3646271E1,1.8428936E1,3.5432438E1,3.945258E1,6.254485E0,4.167119E0,1.0604033E1],"tree_param":{"num_deleted":"0","num_feature":"29","num_nodes":"67","size_leaf_vector":"1"}},{"base_weights":[-4.4635152E-3,1.4267759E-1,-5.986585E-1,-2.2406626E-1,4.2989996E-1,-3.0751828E-2,5.585236E-1,-2.8411227E-1,-2.854862E-2,7.288575E-2,6.2423366E-1,6.4045295E-2,-1.888004E-2,-1.954676E-1,-4.4750497E-1,-2.1525234E-1,3.3497548E-1,-1.2364627E-1,2.850301E-1,-1.1565462E-1,7.731905E-1,-1.5893017E-1,-3.8015223E-1,-4.7427157E-1,2.6837012E-1,-3.1009793E-1,2.7321342E-1,-2.971758E-1,7.287553E-1,-2.6141912E-1,2.1978858E-1,4.322375E-2,4.753918E-1,7.921061E-2,-4.4069836E-1,5.236169E-1,1.180221E0,-1.8207128E-1,2.1236448E-1,-4.5950606E-1,4.4344595E-1,-4.920882E-1,2.5140235E-1,-6.221035E-3,3.9159324E-2,-3.9427802E-1,-3.518161E-2,-0E0,4.9869772E-2,4.0910468E-2,-2.402374E-2,9.508584E-2,1.517492E0,-2.943294E-1,6.1084237E-2,6.708615E-2,2.1439953E-2,-4.5183115E-2,5.2792674E-1,3.2012185E-1,7.625297E-1,5.892363E-2,-4.911423E-1,4.6314484E-1,8.409347E-2,1.2433355E0,2.950833E-1,-1.1032366E-2,-7.4913073E-4,1.9254288E-2,-1.4870875E-2,-2.9381841E-2,-9.616225E-3,-4.165394E-3,4.199924E-2,-0E0,-2.5115658E-2,4.1809063E-2,-1.708599E-2,-2.3064418E-2,-1.6030703E-4,-2.034445E-2,1.0291196E-2,1.32666E-2,-1.5995137E-2,-1.3579898E-2,2.9761432E-2,9.275769E-3,8.5332714E-2,-1.722887E-2,1.7138211E-2,4.6824075E-2,-2.8367604E-3,-1.3679221E-2,6.788209E-3,-9.383512E-3,3.9069906E-2,1.1190597E-2,3.49628E-2,-0E0,5.379503E-2,1.0861377E-2,-2.6177034E-2,1.4766349E-2,3.9679736E-2,-1.8907769E-2,6.3307755E-2,-7.681455E-3,5.099793E-2],"categories":[],"categories_nodes":[],"categories_segments":[],"categories_sizes":[],"default_left":[0,0,0,0,0,0,0,0,0,0,0,0,0,0,0,0,0,0,0,0,0,0,0,0,0,0,0,0,0,0,0,0,0,0,0,0,0,0,0,0,0,0,0,0,0,0,0,0,0,0,0,0,0,0,0,0,0,0,0,0,0,0,0,0,0,0,0,0,0,0,0,0,0,0,0,0,0,0,0,0,0,0,0,0,0,0,0,0,0,0,0,0,0,0,0,0,0,0,0,0,0,0,0,0,0,0,0,0,0],"id":14,"left_children":[1,3,5,7,9,-1,11,13,15,17,19,-1,-1,21,23,25,27,29,31,33,35,37,39,41,43,45,47,49,51,53,55,57,59,-1,61,63,65,67,69,71,73,75,77,-1,-1,79,81,83,-1,-1,-1,85,87,89,-1,-1,91,93,95,97,99,-1,101,103,-1,105,107,-1,-1,-1,-1,-1,-1,-1,-1,-1,-1,-1,-1,-1,-1,-1,-1,-1,-1,-1,-1,-1,-1,-1,-1,-1,-1,-1,-1,-1,-1,-1,-1,-1,-1,-1,-1,-1,-1,-1,-1,-1,-1],"loss_changes":[3.8532275E2,3.7210687E2,1.729663E1,1.803405E1,1.3699649E2,0E0,1.0096533E1,1.6656227E1,2.5098366E1,2.9394192E1,1.4174722E2,0E0,0E0,4.827612E0,8.270935E0,1.1567182E1,3.1747705E1,1.7371145E1,1.5309731E1,1.201396E2,1.06362305E2,5.657894E0,8.52088E0,5.5328445E0,3.6563668E0,4.5590496E0,8.401687E0,1.0611885E1,3.791218E1,1.3039824E1,2.2479652E1,6.8339305E0,7.3696136E0,0E0,1.5768288E1,4.402864E1,2.103479E1,3.8421593E0,3.6068368E0,3.3091202E0,2.8918052E0,2.1593323E0,4.3650312E0,0E0,0E0,3.8856983E0,4.9465623E0,2.7994924E0,0E0,0E0,0E0,8.877662E0,7.0587387E0,8.502136E0,0E0,0E0,7.060999E0,5.5218706E0,5.0505E0,3.8572645E0,1.537262E1,0E0,4.4948654E0,3.4271667E1,0E0,1.5293091E1,1.0504906E1,0E0,0E0,0E0,0E0,0E0,0E0,0E0,0E0,0E0,0E0,0E0,0E0,0E0,0E0,0E0,0E0,0E0,0E0,0E0,0E0,0E0,0E0,0E0,0E0,0E0,0E0,0E0,0E0,0E0,0E0,0E0,0E0,0E0,0E0,0E0,0E0,0E0,0E0,0E0,0E0,0E0,0E0],"parents":[2147483647,0,0,1,1,2,2,3,3,4,4,6,6,7,7,8,8,9,9,10,10,13,13,14,14,15,15,16,16,17,17,18,18,19,19,20,20,21,21,22,22,23,23,24,24,25,25,26,26,27,27,28,28,29,29,30,30,31,31,32,32,34,34,35,35,36,36,37,37,38,38,39,39,40,40,41,41,42,42,45,45,46,46,47,47,51,51,52,52,53,53,56,56,57,57,58,58,59,59,60,60,62,62,63,63,65,65,66,66],"right_children":[2,4,6,8,10,-1,12,14,16,18,20,-1,-1,22,24,26,28,30,32,34,36,38,40,42,44,46,48,50,52,54,56,58,60,-1,62,64,66,68,70,72,74,76,78,-1,-1,80,82,84,-1,-1,-1,86,88,90,-1,-1,92,94,96,98,100,-1,102,104,-1,106,108,-1,-1,-1,-1,-1,-1,-1,-1,-1,-1,-1,-1,-1,-1,-1,-1,-1,-1,-1,-1,-1,-1,-1,-1,-1,-1,-1,-1,-1,-1,-1,-1,-1,-1,-1,-1,-1,-1,-1,-1,-1,-1],"split_conditions":[1.6296296E0,4.8E1,6.572798E1,3.9E1,2E0,-3.0751828E-2,8.405838E1,1.0080142E0,3E0,1.3E2,6.657088E1,6.4045295E-2,-1.888004E-2,9.911805E1,4.4E1,1E0,6.99065E1,1E0,1E0,1E0,4E0,9.3451613E-1,1E0,1.5666177E0,7.947394E1,1.39E2,9.881899E1,1E0,9.790676E-1,1.0148211E2,6.031839E1,6.955798E-1,1E0,7.921061E-2,1.985432E1,1.0156331E2,1.21E2,1E0,1.2351152E2,1.25E2,1E0,1.5253263E1,9.826234E1,-6.221035E-3,3.9159324E-2,1E0,5.555556E-1,9.9666664E1,4.9869772E-2,4.0910468E-2,-2.402374E-2,1.2064946E2,2.0645056E1,1E0,6.1084237E-2,6.708615E-2,9.74E1,6E1,7.435481E1,7.9E1,9.75E1,5.892363E-2,1.1523622E0,1E0,8.409347E-2,9.55E1,6.7E1,-1.1032366E-2,-7.4913073E-4,1.9254288E-2,-1.4870875E-2,-2.9381841E-2,-9.616225E-3,-4.165394E-3,4.199924E-2,-0E0,-2.5115658E-2,4.1809063E-2,-1.708599E-2,-2.3064418E-2,-1.6030703E-4,-2.034445E-2,1.0291196E-2,1.32666E-2,-1.5995137E-2,-1.3579898E-2,2.9761432E-2,9.275769E-3,8.5332714E-2,-1.722887E-2,1.7138211E-2,4.6824075E-2,-2.8367604E-3,-1.3679221E-2,6.788209E-3,-9.383512E-3,3.9069906E-2,1.1190597E-2,3.49628E-2,-0E0,5.379503E-2,1.0861377E-2,-2.6177034E-2,1.4766349E-2,3.9679736E-2,-1.8907769E-2,6.3307755E-2,-7.681455E-3,5.099793E-2],"split_indices":[22,0,6,0,28,0,5,22,28,5,23,0,0,2,4,27,23,9,28,27,28,22,27,22,23,5,2,27,22,2,6,22,9,0,4,2,23,9,5,5,28,4,2,0,0,9,22,23,0,0,0,5,4,27,0,0,2,0,6,0,2,0,22,9,0,2,0,0,0,0,0,0,0,0,0,0,0,0,0,0,0,0,0,0,0,0,0,0,0,0,0,0,0,0,0,0,0,0,0,0,0,0,0,0,0,0,0,0,0],"split_type":[0,0,0,0,0,0,0,0,0,0,0,0,0,0,0,0,0,0,0,0,0,0,0,0,0,0,0,0,0,0,0,0,0,0,0,0,0,0,0,0,0,0,0,0,0,0,0,0,0,0,0,0,0,0,0,0,0,0,0,0,0,0,0,0,0,0,0,0,0,0,0,0,0,0,0,0,0,0,0,0,0,0,0,0,0,0,0,0,0,0,0,0,0,0,0,0,0,0,0,0,0,0,0,0,0,0,0,0,0],"sum_hessian":[4.400627E3,3.5277297E3,8.7289703E2,1.5488097E3,1.9789202E3,8.62065E2,1.0832045E1,1.1822589E3,3.6655075E2,6.993865E2,1.2795336E3,5.9997215E0,4.8323236E0,7.712753E2,4.1098364E2,2.4362013E2,1.2293062E2,3.622619E2,3.371246E2,2.1394266E2,1.065591E3,6.492567E2,1.2201858E2,3.9749472E2,1.3488924E1,2.0547658E2,3.8143543E1,4.688502E1,7.604559E1,2.5992392E2,1.0233798E2,1.5073485E2,1.8638974E2,3.285201E1,1.8109064E2,6.6415875E2,4.0143222E2,6.1339264E2,3.5864094E1,1.1265545E2,9.363131E0,3.8927023E2,8.224504E0,7.9606137E0,5.528311E0,1.5525119E2,5.0225395E1,2.868571E1,9.457831E0,5.25467E0,4.1630352E1,4.3762184E1,3.2283413E1,2.5617947E2,3.7444391E0,1.3263708E1,8.907428E1,1.2814415E2,2.2590706E1,1.2484877E2,6.154097E1,3.8205633E0,1.7727008E2,6.3427484E2,2.988393E1,3.7343057E2,2.8001642E1,4.953881E2,1.1800455E2,2.7885965E1,7.9781294E0,7.325485E1,3.9400593E1,4.158277E0,5.2048535E0,7.2091136E0,3.820611E2,4.153165E0,4.0713396E0,1.3114227E2,2.4108915E1,2.0030313E1,3.0195082E1,1.508035E1,1.360536E1,2.5200462E1,1.8561722E1,4.8359537E0,2.7447458E1,2.3903012E2,1.7149355E1,5.7860317E0,8.3288246E1,5.7413322E1,7.073083E1,5.5287123E0,1.7061993E1,1.03146355E2,2.1702408E1,1.8343735E1,4.3197235E1,6.5791197E0,1.7069096E2,4.2416467E2,2.1011012E2,4.4461236E0,3.6898447E2,1.7842886E1,1.0158756E1],"tree_param":{"num_deleted":"0","num_feature":"29","num_nodes":"109","size_leaf_vector":"1"}},{"base_weights":[-1.3867667E-3,-5.331716E-1,1.1736251E0,-6.399984E-1,9.6786684E-1,1.0370831E0,1.2221195E0,-6.6583425E-1,-1.6545568E-1,-3.2757007E-2,5.9757728E-2,1.17726E0,6.557595E-1,4.4398314E-1,6.1614554E-2,3.0578035E-1,-6.690893E-1,-3.482466E-2,4.9895957E-1,6.0274642E-2,-2.2712888E-2,-6.9538824E-2,9.2887723E-1,5.2317496E-2,-2.6627943E-2,-2.1782214E-2,4.740773E-2,-6.75392E-1,-1.2956141E-1,-3.1734295E-2,8.400887E-1,5.2275594E-2,-3.288302E-2,-2.6767096E-2,1.075286E0,-6.8977684E-1,-5.7565403E-1,-3.264607E-2,4.657035E-2,-2.22369E-2,9.656387E-1,-1.825958E-2,5.7407368E-2,-3.48599E-2,-2.333839E-2,-3.112897E-2,1.4338441E-3,2.2707006E-2,5.733502E-2],"categories":[],"categories_nodes":[],"categories_segments":[],"categories_sizes":[],"default_left":[0,0,0,0,0,0,0,0,0,0,0,0,0,0,0,0,0,0,0,0,0,0,0,0,0,0,0,0,0,0,0,0,0,0,0,0,0,0,0,0,0,0,0,0,0,0,0,0,0],"id":15,"left_children":[1,3,5,7,9,11,13,15,17,-1,-1,19,21,23,-1,25,27,-1,29,-1,-1,31,33,-1,-1,-1,-1,35,37,-1,39,-1,-1,-1,41,43,45,-1,-1,-1,47,-1,-1,-1,-1,-1,-1,-1,-1],"loss_changes":[3.514605E3,6.220906E2,7.9387207E0,4.370984E1,9.6934845E1,2.2938446E1,8.192261E0,1.1434448E1,6.797913E1,0E0,0E0,1.731485E1,2.6943909E1,1.3292736E1,0E0,6.94429E0,1.1046387E1,0E0,3.416931E1,0E0,0E0,2.5967207E1,2.2301384E1,0E0,0E0,0E0,0E0,3.4188232E0,2.4876844E1,0E0,1.1894066E1,0E0,0E0,0E0,1.0625816E1,3.628296E0,1.2872498E1,0E0,0E0,0E0,3.8846855E0,0E0,0E0,0E0,0E0,0E0,0E0,0E0,0E0],"parents":[2147483647,0,0,1,1,2,2,3,3,4,4,5,5,6,6,7,7,8,8,11,11,12,12,13,13,15,15,16,16,18,18,21,21,22,22,27,27,28,28,30,30,34,34,35,35,36,36,40,40],"right_children":[2,4,6,8,10,12,14,16,18,-1,-1,20,22,24,-1,26,28,-1,30,-1,-1,32,34,-1,-1,-1,-1,36,38,-1,40,-1,-1,-1,42,44,46,-1,-1,-1,48,-1,-1,-1,-1,-1,-1,-1,-1],"split_conditions":[1E0,1.6595693E0,1.4174757E0,1.3697641E0,7E0,9.9633766E1,8E0,9.55E1,8E0,-3.2757007E-2,5.9757728E-2,1E0,2.5799404E1,1.6005463E1,6.1614554E-2,9.345779E1,3.5113506E1,-3.482466E-2,1E0,6.0274642E-2,-2.2712888E-2,6E0,8E0,5.2317496E-2,-2.6627943E-2,-2.1782214E-2,4.740773E-2,1E0,1E0,-3.1734295E-2,2.2914433E1,5.2275594E-2,-3.288302E-2,-2.6767096E-2,1.0961264E0,5E0,1.2750306E2,-3.264607E-2,4.657035E-2,-2.22369E-2,1E0,-1.825958E-2,5.7407368E-2,-3.48599E-2,-2.333839E-2,-3.112897E-2,1.4338441E-3,2.2707006E-2,5.733502E-2],"split_indices":[8,22,22,22,7,2,7,2,7,0,0,21,4,4,0,3,4,0,9,0,0,7,7,0,0,0,0,15,17,0,4,0,0,0,22,28,3,0,0,0,16,0,0,0,0,0,0,0,0],"split_type":[0,0,0,0,0,0,0,0,0,0,0,0,0,0,0,0,0,0,0,0,0,0,0,0,0,0,0,0,0,0,0,0,0,0,0,0,0,0,0,0,0,0,0,0,0,0,0,0,0],"sum_hessian":[5.621196E3,3.8708508E3,1.750345E3,3.6150532E3,2.5579776E2,4.7316595E2,1.277179E3,3.4266345E3,1.8841872E2,3.0689148E1,2.2510861E2,3.419699E2,1.3119606E2,1.8266264E1,1.2589127E3,1.03079195E1,3.4163264E3,1.0508497E2,8.333375E1,3.3696753E2,5.0023828E0,3.579583E1,9.540023E1,1.1525782E1,6.740482E0,4.722509E0,5.585411E0,3.3754646E3,4.0861813E1,1.8538736E1,6.479501E1,1.1529966E1,2.4265862E1,7.878643E0,8.752159E1,2.9352744E3,4.4019016E2,2.8194399E1,1.2667416E1,4.9608297E0,5.9834183E1,3.4970903E0,8.40245E1,2.834457E3,1.008176E2,4.0918457E2,3.1005585E1,1.8199251E1,4.1634933E1],"tree_param":{"num_deleted":"0","num_feature":"29","num_nodes":"49","size_leaf_vector":"1"}},{"base_weights":[1.6964229E-2,5.925679E-1,-4.9544427E-1,8.7458754E-1,7.537644E-2,-3.9476305E-2,-3.0944178E-2,9.648981E-1,-2.970137E-2,2.542301E-1,-3.3862323E-1,9.731042E-1,-2.7044564E-1,1.0779278E0,4.2610694E-2,3.4818122E-1,-2.9104823E-2,5.3050175E-2,-4.7339043E-1,1.1200794E0,-2.1962093E-2,2.3610692E-1,-4.2656264E-1,1.1537534E0,5.282203E-1,1.1074169E0,-1.1177977E-1,6.7547095E-1,1.62556E-1,5.5277544E-1,-1.7419322E-1,9.969288E-3,-2.6050536E-2,5.9065934E-2,-0E0,8.4189725E-1,5.0983366E-2,-1.5295349E-1,-5.3929406E-1,1.1861739E0,6.4507085E-1,6.983393E-1,-3.8214527E-2,6.773349E-2,5.3644585E-3,-3.485891E-1,4.3295613E-1,7.6904714E-1,-7.2674835E-3,2.735377E-1,-7.939762E-2,-0E0,7.581754E-1,-0E0,-2.3207983E-2,5.3981002E-2,-0E0,-1.049394E-1,6.119669E-1,5.0264154E-2,-1.9475644E-2,1.3073518E-2,-2.8452108E-2,6.626695E-2,5.4709133E-2,6.0481746E-2,1.8082058E-2,4.8027422E-2,2.0389564E-2,3.022309E-2,-1.3573994E-2,3.4715902E-2,-2.361555E-2,3.431888E-2,-0E0,4.2236213E-2,4.042996E-3,1.0230562E-2,3.625235E-2,3.3584752E-3,-1.3010885E-2,5.199914E-2,-0E0,1.8692162E-2,-1.1399142E-2,5.5146213E-3,-1.6979393E-2,4.8727218E-2,2.2117335E-3,2.4311492E-2,-9.81908E-3],"categories":[],"categories_nodes":[],"categories_segments":[],"categories_sizes":[],"default_left":[0,0,0,0,0,0,0,0,0,0,0,0,0,0,0,0,0,0,0,0,0,0,0,0,0,0,0,0,0,0,0,0,0,0,0,0,0,0,0,0,0,0,0,0,0,0,0,0,0,0,0,0,0,0,0,0,0,0,0,0,0,0,0,0,0,0,0,0,0,0,0,0,0,0,0,0,0,0,0,0,0,0,0,0,0,0,0,0,0,0,0],"id":16,"left_children":[1,3,5,7,9,11,-1,13,-1,15,17,19,21,23,25,27,-1,29,31,33,-1,35,37,39,41,43,45,47,49,51,53,-1,-1,-1,-1,55,57,59,61,63,65,67,69,-1,-1,71,73,75,-1,77,79,-1,81,83,-1,-1,-1,85,87,89,-1,-1,-1,-1,-1,-1,-1,-1,-1,-1,-1,-1,-1,-1,-1,-1,-1,-1,-1,-1,-1,-1,-1,-1,-1,-1,-1,-1,-1,-1,-1],"loss_changes":[1.25734E3,2.9228198E2,1.2653082E2,1.7357281E2,5.280556E1,1.13222466E2,0E0,1.2699634E2,0E0,3.947832E1,1.1589594E1,1.9967255E1,3.157784E1,4.3383545E1,2.3144032E1,2.671146E1,0E0,6.717724E0,5.521435E0,5.0638657E0,0E0,9.978181E0,8.860493E0,1.3313599E1,1.3550735E1,3.3916225E0,1.579124E1,1.29257965E1,7.9510546E0,2.0075126E0,2.0082784E0,0E0,0E0,0E0,0E0,4.5617733E0,6.9024706E0,4.6672153E0,5.527485E0,7.3482666E0,8.350531E0,6.5978546E0,5.0755596E0,0E0,0E0,1.15985365E1,4.007739E0,6.987114E0,0E0,5.5022116E0,2.5590436E0,0E0,3.061121E0,2.4249802E0,0E0,0E0,0E0,3.1865654E0,2.9456663E0,5.768437E0,0E0,0E0,0E0,0E0,0E0,0E0,0E0,0E0,0E0,0E0,0E0,0E0,0E0,0E0,0E0,0E0,0E0,0E0,0E0,0E0,0E0,0E0,0E0,0E0,0E0,0E0,0E0,0E0,0E0,0E0,0E0],"parents":[2147483647,0,0,1,1,2,2,3,3,4,4,5,5,7,7,9,9,10,10,11,11,12,12,13,13,14,14,15,15,17,17,18,18,19,19,21,21,22,22,23,23,24,24,25,25,26,26,27,27,28,28,29,29,30,30,35,35,36,36,37,37,38,38,39,39,40,40,41,41,42,42,45,45,46,46,47,47,49,49,50,50,52,52,53,53,57,57,58,58,59,59],"right_children":[2,4,6,8,10,12,-1,14,-1,16,18,20,22,24,26,28,-1,30,32,34,-1,36,38,40,42,44,46,48,50,52,54,-1,-1,-1,-1,56,58,60,62,64,66,68,70,-1,-1,72,74,76,-1,78,80,-1,82,84,-1,-1,-1,86,88,90,-1,-1,-1,-1,-1,-1,-1,-1,-1,-1,-1,-1,-1,-1,-1,-1,-1,-1,-1,-1,-1,-1,-1,-1,-1,-1,-1,-1,-1,-1,-1],"split_conditions":[8.381558E-1,2E0,1.0080142E0,1E0,9.871378E1,2.5E1,-3.0944178E-2,9.911805E1,-2.970137E-2,1E0,6.15942E-1,1E0,1E0,7E1,2.5E1,6E1,-2.9104823E-2,3E0,4E0,1.2823322E2,-2.1962093E-2,3.2E1,9.841005E1,2.0082956E1,6.8613136E-1,1.03033646E2,1.32E2,7.944371E-1,4E0,1.34E2,2.0082956E1,9.969288E-3,-2.6050536E-2,5.9065934E-2,-0E0,9.952488E1,9.3666664E1,6.6E1,4E0,5E0,2.4E1,7.9E1,1E0,6.773349E-2,5.3644585E-3,4E0,6.2E1,2.0082956E1,-7.2674835E-3,8E0,1.8151241E1,-0E0,9.82164E1,4E0,-2.3207983E-2,5.3981002E-2,-0E0,1.8151241E1,4.7E1,1.8151241E1,-1.9475644E-2,1.3073518E-2,-2.8452108E-2,6.626695E-2,5.4709133E-2,6.0481746E-2,1.8082058E-2,4.8027422E-2,2.0389564E-2,3.022309E-2,-1.3573994E-2,3.4715902E-2,-2.361555E-2,3.431888E-2,-0E0,4.2236213E-2,4.042996E-3,1.0230562E-2,3.625235E-2,3.3584752E-3,-1.3010885E-2,5.199914E-2,-0E0,1.8692162E-2,-1.1399142E-2,5.5146213E-3,-1.6979393E-2,4.8727218E-2,2.2117335E-3,2.4311492E-2,-9.81908E-3],"split_indices":[22,28,22,8,2,0,0,2,0,8,22,8,28,0,0,0,0,28,7,3,0,0,2,4,22,3,5,22,28,5,4,0,0,0,0,2,23,0,7,7,0,0,28,0,0,7,0,4,0,7,4,0,3,28,0,0,0,4,0,4,0,0,0,0,0,0,0,0,0,0,0,0,0,0,0,0,0,0,0,0,0,0,0,0,0,0,0,0,0,0,0],"split_type":[0,0,0,0,0,0,0,0,0,0,0,0,0,0,0,0,0,0,0,0,0,0,0,0,0,0,0,0,0,0,0,0,0,0,0,0,0,0,0,0,0,0,0,0,0,0,0,0,0,0,0,0,0,0,0,0,0,0,0,0,0,0,0,0,0,0,0,0,0,0,0,0,0,0,0,0,0,0,0,0,0,0,0,0,0,0,0,0,0,0,0],"sum_hessian":[4.25882E3,2.0060392E3,2.2527805E3,1.2966432E3,7.09396E2,4.813669E2,1.7714137E3,1.2224939E3,7.414925E1,4.9676578E2,2.1263023E2,8.781049E1,3.935564E2,1.0882457E3,1.3424815E2,4.4818307E2,4.85827E1,5.379337E1,1.5883687E2,8.022935E1,7.581141E0,9.172124E1,3.0183517E2,9.5360065E2,1.3464508E2,1.5846978E1,1.1840118E2,1.5931372E2,2.8886935E2,1.660749E1,3.7185883E1,9.384176E0,1.494527E2,7.555352E1,4.6758313E0,1.9175556E1,7.254568E1,9.074291E1,2.1109225E2,8.93037E2,6.0563675E1,1.03867294E2,3.0777782E1,1.1736527E1,4.1104507E0,8.366715E1,3.4734024E1,1.4367017E2,1.5643564E1,1.9927112E2,8.9598236E1,5.224003E0,1.1383487E1,2.434535E1,1.2840531E1,1.4790634E1,4.384921E0,5.734225E1,1.520343E1,4.8521584E1,4.2221333E1,6.401055E0,2.0469121E2,3.4256012E2,5.5047687E2,1.7468447E1,4.3095226E1,5.1267426E1,5.2599873E1,6.777846E0,2.3999937E1,7.4661818E0,7.6200966E1,2.1122986E1,1.3611035E1,1.2837213E2,1.5298027E1,1.7636183E2,2.2909292E1,4.8653286E1,4.0944954E1,7.9433303E0,3.4401567E0,8.84153E0,1.550382E1,2.934999E1,2.7992258E1,7.8660398E0,7.3373904E0,1.7562662E1,3.0958921E1],"tree_param":{"num_deleted":"0","num_feature":"29","num_nodes":"91","size_leaf_vector":"1"}},{"base_weights":[-5.16324E-3,2.982457E-1,-5.657442E-1,-2.9393753E-1,8.019116E-1,-2.967352E-1,-3.0675385E-2,-4.2424208E-1,3.567034E-1,8.8840824E-1,-2.9992372E-2,-3.0198915E-2,8.699983E-1,-4.6189186E-1,9.524554E-1,8.6807644E-1,-2.8847111E-2,9.91971E-1,9.4338864E-2,6.1163295E-2,-2.3833394E-2,-4.9120575E-1,8.22755E-1,1.1071684E0,-0E0,-3.4505603E-1,1.1475714E0,6.6298306E-1,1.2925603E0,5.933953E-1,-3.452184E-1,-5.0699174E-1,5.8803415E-1,-1.662948E-2,5.4916173E-2,6.268089E-2,-0E0,1.095234E-2,-2.3480123E-2,1.3343312E0,3.8599208E-1,5.408989E-2,9.6175075E-1,1.3567247E0,5.9606516E-1,1.7435634E-1,1.1200805E0,8.8622846E-2,-4.4697502E-1,-2.9453266E-2,-1.8918257E-2,-7.5758733E-3,5.632629E-2,3.6636066E-2,7.3206685E-2,5.5011917E-2,3.660593E-3,-7.832719E-3,3.1990863E-2,5.354331E-2,6.232841E-5,6.926832E-2,4.067241E-2,5.6303885E-2,-4.3889373E-3,1.7843615E-2,-2.387769E-2,6.986508E-2,1.4241362E-2,2.905338E-2,-2.2118744E-2,-9.0847835E-3,-2.9761648E-2],"categories":[],"categories_nodes":[],"categories_segments":[],"categories_sizes":[],"default_left":[0,0,0,0,0,0,0,0,0,0,0,0,0,0,0,0,0,0,0,0,0,0,0,0,0,0,0,0,0,0,0,0,0,0,0,0,0,0,0,0,0,0,0,0,0,0,0,0,0,0,0,0,0,0,0,0,0,0,0,0,0,0,0,0,0,0,0,0,0,0,0,0,0],"id":17,"left_children":[1,3,5,7,9,11,-1,13,15,17,-1,-1,19,21,23,25,-1,27,29,-1,-1,31,33,35,-1,37,39,41,43,45,47,49,51,-1,-1,-1,-1,-1,-1,53,55,57,59,61,63,65,67,69,71,-1,-1,-1,-1,-1,-1,-1,-1,-1,-1,-1,-1,-1,-1,-1,-1,-1,-1,-1,-1,-1,-1,-1,-1],"loss_changes":[7.394082E2,8.4169763E2,1.880014E1,1.1029096E2,1.8607056E2,8.5404495E1,0E0,5.672104E1,1.0467707E2,1.17457886E2,0E0,0E0,2.5139618E1,4.037053E1,4.764244E0,4.9085968E1,0E0,1.2295874E2,3.751411E1,0E0,0E0,1.8155975E1,8.723616E0,4.009243E0,0E0,2.273735E0,1.4551529E1,1.10638916E2,2.6949097E1,1.6665783E1,4.2476654E0,9.835388E0,6.9467487E0,0E0,0E0,0E0,0E0,0E0,0E0,3.900589E0,5.0843983E0,2.5619543E1,4.238742E1,6.0306396E0,2.245895E1,5.9405975E0,6.3849716E0,5.265023E0,2.3237715E0,0E0,0E0,0E0,0E0,0E0,0E0,0E0,0E0,0E0,0E0,0E0,0E0,0E0,0E0,0E0,0E0,0E0,0E0,0E0,0E0,0E0,0E0,0E0,0E0],"parents":[2147483647,0,0,1,1,2,2,3,3,4,4,5,5,7,7,8,8,9,9,12,12,13,13,14,14,15,15,17,17,18,18,21,21,22,22,23,23,25,25,26,26,27,27,28,28,29,29,30,30,31,31,32,32,39,39,40,40,41,41,42,42,43,43,44,44,45,45,46,46,47,47,48,48],"right_children":[2,4,6,8,10,12,-1,14,16,18,-1,-1,20,22,24,26,-1,28,30,-1,-1,32,34,36,-1,38,40,42,44,46,48,50,52,-1,-1,-1,-1,-1,-1,54,56,58,60,62,64,66,68,70,72,-1,-1,-1,-1,-1,-1,-1,-1,-1,-1,-1,-1,-1,-1,-1,-1,-1,-1,-1,-1,-1,-1,-1,-1],"split_conditions":[1E0,7.7310926E-1,2E0,2.0082956E1,1E0,1.0080142E0,-3.0675385E-2,1E0,1.02666664E2,4E0,-2.9992372E-2,-3.0198915E-2,2.8113663E1,1E0,4E0,5.7246375E-1,-2.8847111E-2,1.0080142E0,1.07E2,6.1163295E-2,-2.3833394E-2,1E0,6.027563E-1,1.04333336E2,-0E0,2.155337E1,1E0,1E0,3E0,7.634813E1,1.985432E1,6.328125E-1,6.8944097E-1,-1.662948E-2,5.4916173E-2,6.268089E-2,-0E0,1.095234E-2,-2.3480123E-2,1E0,2.1706543E1,2.0082956E1,1.14E2,1E0,2.155337E1,2.4646362E1,2.1232662E1,1.2E2,5E0,-2.9453266E-2,-1.8918257E-2,-7.5758733E-3,5.632629E-2,3.6636066E-2,7.3206685E-2,5.5011917E-2,3.660593E-3,-7.832719E-3,3.1990863E-2,5.354331E-2,6.232841E-5,6.926832E-2,4.067241E-2,5.6303885E-2,-4.3889373E-3,1.7843615E-2,-2.387769E-2,6.986508E-2,1.4241362E-2,2.905338E-2,-2.2118744E-2,-9.0847835E-3,-2.9761648E-2],"split_indices":[27,22,28,4,8,22,0,26,23,28,0,0,4,18,28,22,0,22,3,0,0,21,22,23,0,4,19,28,28,6,4,22,22,0,0,0,0,0,0,28,4,4,3,17,4,4,4,3,28,0,0,0,0,0,0,0,0,0,0,0,0,0,0,0,0,0,0,0,0,0,0,0,0],"split_type":[0,0,0,0,0,0,0,0,0,0,0,0,0,0,0,0,0,0,0,0,0,0,0,0,0,0,0,0,0,0,0,0,0,0,0,0,0,0,0,0,0,0,0,0,0,0,0,0,0,0,0,0,0,0,0,0,0,0,0,0,0,0,0,0,0,0,0,0,0,0,0,0,0],"sum_hessian":[4.3425093E3,2.8175706E3,1.5249384E3,1.294917E3,1.5226536E3,2.3368611E2,1.2912523E3,1.0800739E3,2.1484312E2,1.4351836E3,8.747E1,1.8607822E2,4.7607903E1,1.0529696E3,2.7104343E1,1.3924974E2,7.559338E1,1.2686038E3,1.6657983E2,3.8153694E1,9.454208E0,1.0310665E3,2.1903044E1,2.342528E1,3.679063E0,2.5651737E1,1.13598015E2,6.095454E2,6.590584E2,7.8215034E1,8.83648E1,1.01770435E3,1.3362176E1,3.7890115E0,1.8114033E1,2.0382961E1,3.0423183E0,3.638762E0,2.2012976E1,8.9491615E1,2.4106396E1,2.0196768E2,4.075777E2,6.0107117E2,5.7987213E1,4.557014E1,3.264489E1,1.5903669E1,7.246113E1,6.145366E2,4.0316772E2,5.844378E0,7.517798E0,1.8924046E1,7.056757E1,5.321272E0,1.8785122E1,1.4897725E2,5.2990444E1,3.6532553E2,4.225217E1,5.6715045E2,3.3920753E1,3.2351223E1,2.563599E1,3.6908855E1,8.661285E0,2.3050108E1,9.594781E0,8.64208E0,7.261589E0,2.8783E1,4.3678127E1],"tree_param":{"num_deleted":"0","num_feature":"29","num_nodes":"73","size_leaf_vector":"1"}},{"base_weights":[2.5682063E-3,1.9407067E-1,-5.069622E-1,-1.8056104E-1,5.1327777E-1,-5.955772E-1,-2.4736162E-1,-2.3637505E-1,7.304773E-2,1.6481905E-1,7.0683944E-1,7.9909205E-2,-3.0474847E-2,-5.1511955E-1,6.130254E-1,-2.5244325E-1,6.2918925E-1,-5.3240293E-1,2.9274896E-1,-3.1485893E-2,3.9839438E-1,8.184894E-1,-4.7153226E-1,-2.534744E-2,6.29625E-2,6.482882E-2,-5.8700377E-1,-1.9784851E-2,9.5795155E-1,-3.8060793E-1,-1.3670456E-1,-1.0840359E-2,6.944094E-2,3.6639308E-3,-2.8713925E-2,-0E0,1.0082995E0,6.2950236E-1,-1.2422047E-1,3.0960253E-1,9.388833E-1,6.064328E-1,1.1392891E0,-2.9196445E-2,5.6682564E-2,-3.0342078E-2,2.097542E-3,-2.3009187E-2,1.222428E0,2.1946478E-1,-3.97934E-1,-8.624837E-2,-3.2156277E-1,-1.7096218E-1,3.011766E-1,-1.8539828E-3,1.1416858E0,8.372309E-1,-0E0,3.4460708E-1,-2.0486373E-1,2.3249483E-1,5.231638E-2,5.191293E-2,2.1443683E-4,4.904687E-1,1.17875E0,3.553543E-1,1.2490423E0,-1.6692862E-2,1.3857527E0,3.732328E-2,-0E0,-2.1164652E-2,-9.47644E-3,-8.458282E-3,2.292478E-3,-1.8861787E-2,1.457267E-2,-2.363301E-3,-2.05918E-2,2.83222E-3,3.2041367E-2,7.1937814E-3,6.757054E-2,5.2838206E-2,-0E0,-2.235259E-2,3.716929E-2,-4.4216095E-3,4.0280282E-2,-1.1586156E-2,5.6436297E-2,1.3121289E-2,-2.353805E-2,8.039232E-2,2.1241704E-2,4.4051472E-2,7.5034015E-2,6.5858096E-2,-5.3763315E-3,5.2713968E-2,7.445201E-2,7.856197E-2,-1.600113E-2],"categories":[],"categories_nodes":[],"categories_segments":[],"categories_sizes":[],"default_left":[0,0,0,0,0,0,0,0,0,0,0,0,0,0,0,0,0,0,0,0,0,0,0,0,0,0,0,0,0,0,0,0,0,0,0,0,0,0,0,0,0,0,0,0,0,0,0,0,0,0,0,0,0,0,0,0,0,0,0,0,0,0,0,0,0,0,0,0,0,0,0,0,0,0,0,0,0,0,0,0,0,0,0,0,0,0,0,0,0,0,0,0,0,0,0,0,0,0,0,0,0,0,0,0,0],"id":18,"left_children":[1,3,5,7,9,11,13,15,17,19,21,23,-1,25,27,29,31,33,35,37,39,41,43,-1,-1,-1,45,-1,47,49,51,-1,-1,-1,-1,53,55,57,59,61,63,65,67,-1,-1,-1,-1,-1,69,71,73,75,77,79,81,-1,83,85,87,89,91,93,-1,-1,-1,95,97,99,101,-1,103,-1,-1,-1,-1,-1,-1,-1,-1,-1,-1,-1,-1,-1,-1,-1,-1,-1,-1,-1,-1,-1,-1,-1,-1,-1,-1,-1,-1,-1,-1,-1,-1,-1,-1],"loss_changes":[4.3375095E2,3.8694525E2,2.7212372E1,2.1179214E1,1.1714685E2,8.845551E0,7.287687E1,1.7120918E1,3.5884045E1,2.8972279E1,1.4848749E2,1.4982792E1,0E0,3.253509E1,2.7117273E1,1.7458931E1,1.5501072E1,2.1493168E0,4.1420002E1,2.083913E1,1.2604969E1,6.750763E1,1.8719267E1,0E0,0E0,0E0,3.2443924E0,0E0,2.281226E1,6.1583557E0,5.6773596E0,0E0,0E0,0E0,0E0,7.508842E0,8.654362E0,5.5202293E0,1.1483786E1,1.3129681E1,3.0758553E0,3.933017E1,3.3146973E1,0E0,0E0,0E0,0E0,0E0,1.3835304E1,2.1898985E0,2.4533615E0,5.6071644E0,4.8230085E0,2.4790378E0,3.986219E0,0E0,9.636093E0,5.329626E0,4.70975E0,9.312269E0,9.37752E0,4.991726E0,0E0,0E0,0E0,3.58898E1,6.0126495E0,2.4519232E1,1.2126953E1,0E0,1.579747E1,0E0,0E0,0E0,0E0,0E0,0E0,0E0,0E0,0E0,0E0,0E0,0E0,0E0,0E0,0E0,0E0,0E0,0E0,0E0,0E0,0E0,0E0,0E0,0E0,0E0,0E0,0E0,0E0,0E0,0E0,0E0,0E0,0E0,0E0],"parents":[2147483647,0,0,1,1,2,2,3,3,4,4,5,5,6,6,7,7,8,8,9,9,10,10,11,11,13,13,14,14,15,15,16,16,17,17,18,18,19,19,20,20,21,21,22,22,26,26,28,28,29,29,30,30,35,35,36,36,37,37,38,38,39,39,40,40,41,41,42,42,48,48,49,49,50,50,51,51,52,52,53,53,54,54,56,56,57,57,58,58,59,59,60,60,61,61,65,65,66,66,67,67,68,68,70,70],"right_children":[2,4,6,8,10,12,14,16,18,20,22,24,-1,26,28,30,32,34,36,38,40,42,44,-1,-1,-1,46,-1,48,50,52,-1,-1,-1,-1,54,56,58,60,62,64,66,68,-1,-1,-1,-1,-1,70,72,74,76,78,80,82,-1,84,86,88,90,92,94,-1,-1,-1,96,98,100,102,-1,104,-1,-1,-1,-1,-1,-1,-1,-1,-1,-1,-1,-1,-1,-1,-1,-1,-1,-1,-1,-1,-1,-1,-1,-1,-1,-1,-1,-1,-1,-1,-1,-1,-1,-1],"split_conditions":[1E0,4.9E1,6.8666664E1,8E0,2E0,8E0,9.9633766E1,5E0,6.928374E1,1.31E2,1.7450733E0,1.8151241E1,-3.0474847E-2,9.455881E1,7.1E1,1.16E2,1.07E2,2E0,2.0082956E1,6.031839E1,1.0606445E2,4E0,6.572798E1,-2.534744E-2,6.29625E-2,6.482882E-2,1E0,-1.9784851E-2,3.1E1,9.71E1,9.900681E1,-1.0840359E-2,6.944094E-2,3.6639308E-3,-2.8713925E-2,1E0,6.99065E1,1E2,9.7761444E1,8.7E1,1.5501323E2,8.1E1,6.657088E1,-2.9196445E-2,5.6682564E-2,-3.0342078E-2,2.097542E-3,-2.3009187E-2,6E0,6.6E1,4.3E1,1E0,1.07333336E2,8.311625E1,1.8151241E1,-1.8539828E-3,2.1E1,6E0,1.2055365E2,1E0,1.015E2,8.5E1,5.231638E-2,5.191293E-2,2.1443683E-4,8.993484E1,7.258755E-1,8E0,2.2072783E1,-1.6692862E-2,1.448163E2,3.732328E-2,-0E0,-2.1164652E-2,-9.47644E-3,-8.458282E-3,2.292478E-3,-1.8861787E-2,1.457267E-2,-2.363301E-3,-2.05918E-2,2.83222E-3,3.2041367E-2,7.1937814E-3,6.757054E-2,5.2838206E-2,-0E0,-2.235259E-2,3.716929E-2,-4.4216095E-3,4.0280282E-2,-1.1586156E-2,5.6436297E-2,1.3121289E-2,-2.353805E-2,8.039232E-2,2.1241704E-2,4.4051472E-2,7.5034015E-2,6.5858096E-2,-5.3763315E-3,5.2713968E-2,7.445201E-2,7.856197E-2,-1.600113E-2],"split_indices":[8,0,23,7,28,7,2,28,23,5,22,4,0,5,23,5,3,28,4,6,3,28,6,0,0,0,16,0,0,2,2,0,0,0,0,28,23,3,2,0,3,0,23,0,0,0,0,0,7,3,0,28,23,6,4,0,0,7,3,28,2,0,0,0,0,5,22,7,4,0,3,0,0,0,0,0,0,0,0,0,0,0,0,0,0,0,0,0,0,0,0,0,0,0,0,0,0,0,0,0,0,0,0,0,0],"split_type":[0,0,0,0,0,0,0,0,0,0,0,0,0,0,0,0,0,0,0,0,0,0,0,0,0,0,0,0,0,0,0,0,0,0,0,0,0,0,0,0,0,0,0,0,0,0,0,0,0,0,0,0,0,0,0,0,0,0,0,0,0,0,0,0,0,0,0,0,0,0,0,0,0,0,0,0,0,0,0,0,0,0,0,0,0,0,0,0,0,0,0,0,0,0,0,0,0,0,0,0,0,0,0,0,0],"sum_hessian":[4.442835E3,3.2307903E3,1.2120443E3,1.4860347E3,1.7447557E3,9.0023376E2,3.1181058E2,1.2197095E3,2.663252E2,6.2531714E2,1.1194386E3,1.7259909E1,8.829739E2,2.3885963E2,7.295093E1,1.1994376E3,2.027183E1,6.954667E1,1.9677853E2,3.39543E2,2.8577414E2,1.023498E3,9.5940636E1,1.2003235E1,5.2566733E0,7.5498996E0,2.3130974E2,1.8144402E1,5.480653E1,5.649434E2,6.344942E2,9.955447E0,1.0316383E1,3.628248E0,6.591843E1,1.4128117E2,5.5497353E1,3.9688118E1,2.998549E2,2.489476E2,3.6826527E1,6.2060315E2,4.0289484E2,9.114266E1,4.7979693E0,2.2507591E2,6.2338247E0,8.084825E0,4.6721703E1,1.4389345E1,5.505541E2,5.028748E2,1.3161945E2,9.021364E1,5.106754E1,6.019182E0,4.947817E1,2.9442955E1,1.0245163E1,4.2137543E1,2.5771735E2,2.2835696E2,2.0590641E1,3.2603027E1,4.223502E0,5.1985645E2,1.0074675E2,5.1079575E1,3.5181525E2,3.9484184E0,4.2773285E1,3.3467865E0,1.1042559E1,4.8685187E2,6.370221E1,3.1092957E2,1.9194522E2,1.2211414E2,9.505293E0,6.2556934E1,2.76567E1,3.1903906E1,1.9163635E1,9.5931E0,3.988507E1,2.2508371E1,6.9345827E0,6.9646845E0,3.280478E0,2.2001842E1,2.0135698E1,2.546166E2,3.1007369E0,2.2091917E2,7.437782E0,2.5812212E1,4.940442E2,5.7031063E1,4.3715683E1,1.574744E1,3.5332134E1,2.0131409E2,1.5050116E2,3.8984913E1,3.7883723E0],"tree_param":{"num_deleted":"0","num_feature":"29","num_nodes":"105","size_leaf_vector":"1"}},